
//<![CDATA[

// a few things don't have var in front of them - they update already existing variables the game needs
lanesSide = 3;
patchesAhead = 50;
patchesBehind = 10;
trainIterations = 500000;
OtherAgents = 3;

var num_inputs = (lanesSide * 2 + 1) * (patchesAhead + patchesBehind);
var num_actions = 5;
var temporal_window = 0;
var network_size = num_inputs * temporal_window + num_actions * temporal_window + num_inputs;

var layer_defs = [];
layer_defs.push({
    type: 'input',
    out_sx: 1,
    out_sy: 1,
    out_depth: network_size
});
layer_defs.push({
    type: 'fc',
    num_neurons: 36,
    activation: 'tanh'
});
layer_defs.push({
    type: 'fc',
    num_neurons: 24,
    activation: 'tanh'
});
layer_defs.push({
    type: 'fc',
    num_neurons: 24,
    activation: 'tanh'
});
layer_defs.push({
    type: 'fc',
    num_neurons: 24,
    activation: 'tanh'
});
layer_defs.push({
    type: 'regression',
    num_neurons: num_actions
});

var tdtrainer_options = {
    learning_rate: 0.001,
    momentum: 0.0,
    batch_size: 128,
    l2_decay: 0.01
};

var opt = {};
opt.temporal_window = temporal_window;
opt.experience_size = 100000;
opt.start_learn_threshold = 50000;
opt.gamma = 0.98;
opt.learning_steps_total = 500000;
opt.learning_steps_burnin = 1000;
opt.epsilon_min = 0.0;
opt.epsilon_test_time = 0.0;
opt.layer_defs = layer_defs;
opt.tdtrainer_options = tdtrainer_options;

brain = new deepqlearn.Brain(num_inputs, num_actions, opt);

learn = function (state, lastReward) {
    brain.backward(lastReward);
    var action = brain.forward(state);

    draw_net();
    draw_stats();

    return action;
}

//]]>
    
/*###########*/
if (brain) {
brain.value_net.fromJSON({"layers":[{"out_depth":420,"out_sx":1,"out_sy":1,"layer_type":"input"},{"out_depth":36,"out_sx":1,"out_sy":1,"layer_type":"fc","num_inputs":420,"l1_decay_mul":0,"l2_decay_mul":1,"filters":[{"sx":1,"sy":1,"depth":420,"w":{"0":0.034461606604593395,"1":-0.02635531391372069,"2":-0.2211356792464823,"3":-0.12628298061673296,"4":-0.20009329113134441,"5":-0.04024163702027806,"6":-0.06017358131451664,"7":0.0729962928157031,"8":0.011937933491984135,"9":0.002771876224130445,"10":0.12587002507381218,"11":-0.046154554421974,"12":-0.11827725428119706,"13":0.01692065025111044,"14":-0.0006892633484968903,"15":0.04566023979511714,"16":-0.11248597609442024,"17":0.035617992902728046,"18":0.01821971668235579,"19":-0.05992234423236174,"20":-0.0483718812086532,"21":-0.040626143022876655,"22":-0.0044625492144026975,"23":0.049063632805205634,"24":0.0022921208116769166,"25":-0.0027420194558388975,"26":-0.011446182761318417,"27":-0.027143517192013702,"28":-0.03173340444797445,"29":-0.03175227995471746,"30":-0.10009397694383748,"31":-0.13769974578494945,"32":-0.020164160315295516,"33":-0.015259193423197646,"34":-0.1294607149848071,"35":0.009019006521296826,"36":-0.1027171008029702,"37":-0.06537750528699068,"38":0.023273273223287982,"39":-0.053002357597299335,"40":0.02799492033718341,"41":-0.0003466012705667218,"42":0.002193152620468756,"43":0.019314191104167426,"44":-0.058254788294716656,"45":0.05444022189551357,"46":-0.00024393745339617545,"47":-0.05354916450794793,"48":-0.006354340664669171,"49":-0.060657701454227046,"50":-0.00407294832267895,"51":-0.011768803094646384,"52":0.07645551620329691,"53":-0.0446436340229414,"54":-0.014283262890308924,"55":-0.07710169175175484,"56":0.026013862386689377,"57":-0.030452401918997167,"58":0.07807208311538444,"59":-0.024366241093373986,"60":-0.04591750077665763,"61":-0.04446796621271327,"62":0.012120242651185373,"63":0.029003571178323462,"64":0.027904617815998584,"65":0.01181401696098423,"66":-0.0005595238374696965,"67":-0.013324330323802903,"68":0.049297914910164345,"69":-0.03240454112577266,"70":-0.06019441482475595,"71":-0.013942274882067092,"72":0.010380934907315875,"73":0.058298444235714536,"74":-0.08898777008678832,"75":-0.015989512221780907,"76":-0.0605432140770806,"77":0.020085612878645416,"78":0.03286040387081347,"79":0.03243587824532275,"80":0.006507928677979956,"81":0.05005628197276312,"82":0.01670059512600085,"83":-0.03789203123645142,"84":-0.04779942881010711,"85":0.050422067256299656,"86":-0.008438908366590371,"87":-0.01650914457076352,"88":-0.04463699445224867,"89":0.05030726990787685,"90":0.037442023736967055,"91":0.01016864582219697,"92":0.041178086607950394,"93":-0.002088009006714677,"94":0.07914238248671235,"95":0.002297549537152278,"96":0.07472360695517305,"97":0.08172355547337265,"98":0.02892767553884293,"99":0.09042962667149167,"100":0.057820079833215236,"101":-0.06314698125166639,"102":0.046855136359380524,"103":0.018175187144725904,"104":0.09027793693576974,"105":0.020560156462649033,"106":0.010432213933565398,"107":0.003012345018361236,"108":0.05912063597281921,"109":0.02769718128816178,"110":0.04360961661668454,"111":0.05362126066619296,"112":-0.028225523761137856,"113":0.055054556031285506,"114":0.03172861644630987,"115":0.1548402707360086,"116":0.05647602428718475,"117":0.05087104293328489,"118":0.046384184740741304,"119":0.04177463987628278,"120":0.04194780358231765,"121":0.04276192764432272,"122":0.001464863325370185,"123":0.054191946434850036,"124":0.02114018633627378,"125":0.034423082410261006,"126":0.02432212335351205,"127":0.03716506748302195,"128":0.053304974329626054,"129":0.10030293362321174,"130":0.0202698936033135,"131":-0.027601307384110145,"132":0.06380199476974506,"133":-0.004752883212851785,"134":0.022040910020005265,"135":0.03573097693720678,"136":0.06649180583449493,"137":0.032096139211487074,"138":0.06835747209352352,"139":0.05029445625812194,"140":0.0007870295890817678,"141":-0.022290864094311396,"142":0.03897703862119544,"143":0.08437420667298537,"144":0.051852474891862316,"145":0.003266298797331029,"146":0.07604141084718828,"147":0.07810878149961317,"148":-0.01252186042730417,"149":0.055604137107749536,"150":0.139325417452158,"151":0.011426695193294967,"152":0.019201455885921755,"153":0.033146051931065346,"154":0.04448320986217873,"155":0.07655249481315607,"156":0.056505968895274594,"157":0.0658636256973887,"158":0.10141947614422722,"159":0.05513460067581162,"160":-0.006356560048000439,"161":-0.014765308505811127,"162":0.04222034996989555,"163":0.022756006081716247,"164":0.08354157542309486,"165":0.03619087498889214,"166":-0.09059680328639266,"167":0.07310556673935031,"168":0.044290944390550195,"169":-0.014309194705072241,"170":0.034530496263623145,"171":0.12407955556762335,"172":0.057186525544898295,"173":0.01895746214240237,"174":0.04309390976947717,"175":0.07102302366859953,"176":0.03330289024472863,"177":0.02490451556631513,"178":0.19329016602225593,"179":0.10364792846418695,"180":0.008811510137365784,"181":0.07469767734831935,"182":-0.011520765978643113,"183":-0.008627902953744533,"184":0.15557580051657882,"185":0.17832715231503626,"186":0.1632225941681927,"187":0.06692134359395285,"188":-0.0427974386735719,"189":-0.04508866855030055,"190":0.044832122914800925,"191":0.11106204177413372,"192":0.16335565185392115,"193":0.14862616875482587,"194":-0.047687012871865775,"195":-0.010673533977244083,"196":0.07169678688937432,"197":0.09268777801564512,"198":0.028206835799521233,"199":0.1358636145454154,"200":0.14696451250839654,"201":0.03708799063384362,"202":0.05995437836765277,"203":0.03271981321554279,"204":0.03515056668645686,"205":0.09445520199895585,"206":0.21042502171186936,"207":0.16731270364022216,"208":0.09013049901776389,"209":-0.03986499008305523,"210":-0.04335094968443083,"211":-0.024652091165438553,"212":0.15473676131011393,"213":0.24202553867809093,"214":0.17116026330988215,"215":0.050686766522482524,"216":0.04839341525030068,"217":-0.008603689245099307,"218":0.08628037658373487,"219":0.1255262020267042,"220":0.21357062523740633,"221":0.05030378232687594,"222":0.04378335668204654,"223":0.07128780804492585,"224":-0.05733066118526281,"225":0.05261678070518717,"226":0.08191850030461911,"227":0.18695113866315508,"228":0.05081396113566794,"229":0.09034477371854485,"230":0.005786173687674373,"231":0.04353693054516712,"232":-0.03408230884484388,"233":-0.06851585977841403,"234":0.24871895484749562,"235":0.01733269278367855,"236":0.015749393446877126,"237":0.06684683089090779,"238":0.004535304635717426,"239":0.09056527277533363,"240":0.1058512232466187,"241":0.2335303897293702,"242":0.2270490656614197,"243":0.060659331756020986,"244":0.0817881301340666,"245":0.017688737142523652,"246":-0.054202458227635274,"247":0.0988677186184175,"248":0.11120839551956509,"249":0.1448119870613165,"250":0.0656356790280809,"251":-0.007947206068377578,"252":-0.07273952578108611,"253":0.06923491951552745,"254":0.05420770419357812,"255":0.23372142915516642,"256":0.023318430833952533,"257":0.04963525513494287,"258":-0.02182448937760567,"259":-0.016237308394269047,"260":0.04096665039901392,"261":-0.028974285370921338,"262":0.14945594181365912,"263":0.08111787620821834,"264":0.04158312077301376,"265":0.07022606988003592,"266":0.022028006962181636,"267":-0.06708957716086968,"268":0.09351873110411575,"269":0.07476001066787516,"270":0.11263787755705575,"271":-0.017363332934109243,"272":-0.03281382922875689,"273":0.06682546153484906,"274":-0.00527794109913185,"275":0.13332433494376758,"276":-0.1425286483588224,"277":0.03220563461610273,"278":0.017818179923669734,"279":-0.009978861020620412,"280":-0.019356213140463752,"281":-0.030453607629537267,"282":0.18803452357230868,"283":-0.29355448886868973,"284":0.130988948094033,"285":-0.07065833730508536,"286":0.06195256700147271,"287":0.07779405826782301,"288":-0.0017469796075962113,"289":0.1775710222125419,"290":-0.26949788580256717,"291":0.07893382495427484,"292":-0.06760343504512058,"293":-0.081991815283718,"294":-0.08046214634182693,"295":-0.03493354823696122,"296":0.04711147630743018,"297":-0.20073367127359298,"298":-0.06288366755083219,"299":-0.08803735683082758,"300":-0.08193760669914081,"301":0.021450777536511607,"302":-0.02980352213498869,"303":-0.02710036901674983,"304":-0.11230770296802202,"305":0.029196724466542166,"306":-0.006725230601013026,"307":-0.036995496824069656,"308":-0.021017407485411293,"309":-0.014766829517926695,"310":-0.12079052238590093,"311":0.059630956641626126,"312":-0.059656134579234125,"313":0.040511855255298955,"314":-0.08543078882865324,"315":-0.07904186200321602,"316":0.011031806815634553,"317":-0.12156649465182912,"318":0.015810362948539082,"319":-0.2104412975173214,"320":-0.037327563319495806,"321":-0.02900720790745921,"322":0.08884760054337579,"323":0.01526160461650543,"324":-0.12152581540939417,"325":-0.050028847010463354,"326":-0.10670912936937545,"327":-0.05427724205921606,"328":0.0690647710978095,"329":0.008056710514395786,"330":-0.06069057694273345,"331":-0.10245562085881282,"332":-0.15046498118190793,"333":-0.168305419473117,"334":-0.18558601624615403,"335":-0.005489412110737519,"336":0.020105499034393903,"337":-0.09525185803747574,"338":-0.20828187547419677,"339":-0.30563978001947656,"340":-0.1541987406922615,"341":0.0034721661155987372,"342":0.006508802175567972,"343":0.045681207118376664,"344":-0.002530402669971698,"345":-0.05989941169901653,"346":-0.3271874890946318,"347":0.024342914036909247,"348":-0.03709081794205227,"349":0.0427586763750093,"350":0.06715864505928759,"351":-0.013217025806194542,"352":-0.11564377078688252,"353":0.35064905756609643,"354":-0.0661294420498077,"355":-0.04441451495819418,"356":0.06062978192167736,"357":-0.0016716896816253112,"358":0.05715980465198246,"359":-0.15135994088667756,"360":0.29054660203425664,"361":-0.018662551784647815,"362":-0.03801867910787415,"363":-0.07276336583817009,"364":0.0011479927135263572,"365":0.060309793918445834,"366":-0.12000909096542468,"367":0.37372047014322807,"368":-0.06461370545711724,"369":0.04397498673931539,"370":-0.0912362308939163,"371":0.047060876872015,"372":-0.036585374993445774,"373":-0.05748595972452321,"374":0.29227951308576544,"375":-0.05514018535805103,"376":-0.020116997751332834,"377":0.08888140571346297,"378":0.000471973963347195,"379":0.029506623441085844,"380":0.07362726313942612,"381":-0.27518282724337617,"382":-0.10119022632860582,"383":0.0035315386021374097,"384":0.052688373249232444,"385":-0.03974219458468396,"386":-0.04328988285392794,"387":-0.024734076158060742,"388":-0.32378113068988584,"389":-0.07870204108179855,"390":0.005389897444692615,"391":-0.041446912413969084,"392":-0.13314130642563904,"393":0.06607192126495412,"394":-0.06392703185298931,"395":-0.2720930029115483,"396":0.016659010155920924,"397":-0.04372754285524886,"398":-0.004524879765722396,"399":0.06968982984438693,"400":0.04635318316334961,"401":-0.023698303143845734,"402":-0.22456264776464674,"403":-0.032264331874933994,"404":0.1082774997789729,"405":-0.02620342506936521,"406":-0.06533499681227409,"407":-0.022241832662409432,"408":-0.036846271545542146,"409":-0.20787094264458775,"410":-0.035316638058808726,"411":-0.07115380667655466,"412":-0.0723928949890963,"413":0.009336754304796304,"414":-0.004488237203789161,"415":0.00594270354630983,"416":-0.019174793835299887,"417":-0.2141417567278855,"418":-0.005713735264888823,"419":-0.05504312165858056}},{"sx":1,"sy":1,"depth":420,"w":{"0":-0.09553999825334478,"1":-0.1569766722612307,"2":0.02017089974252148,"3":-0.09870816297716618,"4":-0.09039859393895494,"5":0.053567756604586306,"6":0.032634490082217006,"7":-0.010583448445044833,"8":-0.07073520877928083,"9":-0.04619775584950945,"10":-0.004264929571743325,"11":-0.11453023070066312,"12":0.020162739137106974,"13":0.0527945155486333,"14":-0.1141609624628425,"15":-0.1664397654694446,"16":0.05383239989358056,"17":0.013279431651477774,"18":-0.03538754328805256,"19":0.020538016109689052,"20":0.07178395628702978,"21":-0.05295132312796131,"22":-0.14189562529356078,"23":-0.06228290026054746,"24":-0.14706451997364403,"25":0.034324183373135815,"26":0.05406820572454146,"27":-0.031580961320946704,"28":0.004376019291563661,"29":-0.16892926743859787,"30":-0.037264824796249534,"31":-0.05454411417785898,"32":-0.12377694019783418,"33":-0.01098557614323479,"34":0.046575783381550634,"35":0.016464630053014902,"36":-0.01420704955384937,"37":-0.08110574917346326,"38":-0.04163023691554311,"39":-0.01842614267890946,"40":0.0008811416847080174,"41":0.01673061330772389,"42":0.024724584822057725,"43":0.10341277855009312,"44":-0.02471058712499868,"45":0.012387053549142085,"46":-0.0050905357281777995,"47":0.03359138319664763,"48":0.01830346274330408,"49":0.007545803510265783,"50":-0.08613080285453979,"51":-0.06127127331179433,"52":-0.026247973017547426,"53":-0.03984552442816584,"54":0.013731085534334149,"55":0.028471646740270567,"56":0.04373495650746686,"57":-0.09002775412092996,"58":-0.0363136586314874,"59":0.017647541684583535,"60":-0.083609851458761,"61":0.006382195048880788,"62":0.007363689844561153,"63":0.05270353290281582,"64":0.007130652752490878,"65":-0.009315813554324778,"66":-0.009169258567618842,"67":0.006981264054905238,"68":-0.020662611170758908,"69":-0.02972000317668959,"70":-0.020304506929613268,"71":-0.006849183878168045,"72":-0.001432001702437166,"73":-0.038788971403930686,"74":0.014918091335173817,"75":-0.029730357879030944,"76":0.05934218220578143,"77":-0.0970962276866634,"78":-0.14466972977198778,"79":-0.08843976086954196,"80":0.012396321025677845,"81":0.017382298626177854,"82":-0.013568368858710158,"83":0.012593683117431856,"84":-0.027015483342985723,"85":-0.006661124391396227,"86":0.057611230022471045,"87":-0.1254335616872877,"88":-0.08722454369123758,"89":-0.15011728652327563,"90":0.01727763986362535,"91":-0.015330855328181047,"92":-0.04723782753758057,"93":0.01553508239093433,"94":0.02510538245503294,"95":0.005610617604200618,"96":-0.00752112344342591,"97":-0.04273578497745966,"98":-0.0006685484250796194,"99":-0.008148763552762586,"100":-0.012569680996821408,"101":-0.07697948246243018,"102":0.02522687797207315,"103":0.033913276242193695,"104":0.0403169023033221,"105":-0.024074910372932155,"106":-0.014009470505779805,"107":0.06055313413553324,"108":0.0774177100892798,"109":0.01777122076570498,"110":0.07318429173670749,"111":0.038534751719360084,"112":-0.005245921082351252,"113":-0.03824652070050033,"114":-0.04895447764660442,"115":-0.04905394908237185,"116":-0.06644970528531861,"117":-0.0074884692167152805,"118":-0.08625365957400587,"119":0.031977453957038375,"120":-0.058184246882820874,"121":0.008154990150585418,"122":-0.01813128671824893,"123":0.07669769183173622,"124":-0.025675721593750093,"125":-0.010122472914935978,"126":-0.07582896296872405,"127":0.037352971807285765,"128":0.04907399888556767,"129":-0.038958818074262755,"130":-0.04309618225120686,"131":0.0532293960954324,"132":-0.0015504807781066571,"133":0.03711354478609694,"134":-0.006278877431461552,"135":0.04112536948938246,"136":0.0334719535391445,"137":-0.04798135012910033,"138":0.04411559214326934,"139":-0.00555702431180848,"140":0.014426842312561259,"141":-0.051166893678169095,"142":0.004852761934593686,"143":0.025292911636459546,"144":-0.06923519943169613,"145":-0.06621397773079019,"146":0.09553076223949605,"147":0.04950685438187726,"148":-0.03629364539053958,"149":-0.07463526662293311,"150":-0.05742113176744192,"151":0.09674626328095161,"152":0.04432467026315282,"153":-0.004272772480618411,"154":0.03680990516181388,"155":-0.053543737302958506,"156":0.007463911031063572,"157":0.03367124187040957,"158":-0.049042725275168134,"159":0.07336448420338566,"160":-0.021000606815956297,"161":0.08095771458680819,"162":0.020308380944837907,"163":-0.04182880771484976,"164":0.06002495704184937,"165":0.02086397498331117,"166":-0.047458162933710565,"167":-0.004859843785759369,"168":-0.08109662805343652,"169":0.050699029468822605,"170":0.10310446879692897,"171":-0.029831502601370418,"172":0.014325098501216875,"173":-0.09953826583078891,"174":-0.04978029808319216,"175":0.021315078060470612,"176":-0.010118786194521317,"177":0.08607094137442103,"178":-0.05596237210857473,"179":-0.09227487177979614,"180":-0.03467002905424013,"181":0.03659498540879331,"182":0.06633779753329262,"183":0.023995619408662534,"184":0.06048374129325661,"185":0.0794853327681024,"186":-0.025707427293698383,"187":-0.004129026543249211,"188":-0.04642222814512853,"189":-0.00961412945421096,"190":0.06181247431362148,"191":0.007922574803500736,"192":0.003500025312058639,"193":0.006385144693454899,"194":-0.07706799036799661,"195":0.032940290782689945,"196":-0.015229400459660312,"197":0.03766113312683745,"198":0.0022584432119591978,"199":0.09865419711297052,"200":-0.04968655147413365,"201":-0.015191273419949579,"202":0.01709675043677843,"203":0.011977123816913923,"204":-0.04922693433139554,"205":0.045358662138737994,"206":-0.02077804684485037,"207":-0.08166190164777852,"208":-0.047322743233443106,"209":-0.011617548981824193,"210":-0.010463555668251466,"211":0.14061060600072792,"212":0.023119067148030435,"213":-0.01950526933018496,"214":0.006194427374435354,"215":-0.06199691887681021,"216":-0.01831106132514601,"217":-0.010795596513023123,"218":0.07821381927956904,"219":0.14791349305231688,"220":-0.00456087775380714,"221":-0.022374873822339547,"222":-0.07273984165393789,"223":-0.044856771818532745,"224":0.017926235769085645,"225":0.13085358999703606,"226":0.09968349404767596,"227":0.05572677301808097,"228":-0.10630531554872064,"229":0.02220960408195617,"230":-0.11414959975406656,"231":0.03541037490030854,"232":0.04246560563797351,"233":0.024136686818601122,"234":0.04037615909768809,"235":-0.08480363395219208,"236":0.020573415489760938,"237":-0.07563483497599684,"238":0.02104235051476546,"239":0.0513248971337788,"240":0.20710121192810016,"241":-0.018100012173411117,"242":-0.09207723656640263,"243":-0.0752011117148763,"244":-0.03922239262996736,"245":-0.002293616354971639,"246":0.03953473360422978,"247":0.20602968660301138,"248":-0.04730026990297451,"249":-0.036426245805095486,"250":0.028145897060090585,"251":-0.08052515181863554,"252":0.08754997248144279,"253":0.03625582074632321,"254":0.24399302020076769,"255":-0.018681120850941535,"256":-0.1446012669958819,"257":0.052807905231407326,"258":-0.01731540832657111,"259":0.017214997665503908,"260":0.10198243638080412,"261":0.3016076439746633,"262":0.040537091866511964,"263":-0.07996321032580508,"264":0.052114437843411805,"265":-0.03811863515336691,"266":0.0294519237355095,"267":0.10147413753687823,"268":0.4604565882439436,"269":-0.1609659949251148,"270":-0.030883800384091657,"271":-0.1516029376032077,"272":-0.020603186980673694,"273":0.07265562027489697,"274":0.028873726108302796,"275":0.419030410639654,"276":-0.1391648695341917,"277":-0.17683016069706153,"278":-0.00082295105202706,"279":0.03349537404595293,"280":-0.0039018352832733325,"281":0.09803043571621078,"282":0.30913930016377916,"283":-0.2183109135572751,"284":-0.12621576266760737,"285":0.041291235705156845,"286":-0.03328233548739925,"287":0.03684925617226488,"288":0.1140505646513066,"289":0.3258647491296115,"290":-0.1259182338927089,"291":-0.2311154038298517,"292":0.027021281554152253,"293":-0.016614528588162026,"294":0.03369071251746595,"295":0.10883202602950548,"296":0.4504319504167547,"297":-0.10090173011747833,"298":-0.11461826177040418,"299":-0.07379744531817523,"300":0.07620925445918256,"301":-0.02493572711367358,"302":0.18089962074146812,"303":0.35874441190553236,"304":-0.14230064733499062,"305":-0.19638841290777823,"306":-0.03265612617083246,"307":-0.052983884288227534,"308":0.05401944498197761,"309":0.09127988994452428,"310":0.468054151585308,"311":-0.1609043038252905,"312":-0.14203327069555377,"313":-0.020661188374013793,"314":-0.03981030512463763,"315":-0.019141708173666273,"316":0.14383263917103126,"317":0.5379138776651027,"318":-0.20705084212727848,"319":-0.22610902928330553,"320":-0.03657225426733352,"321":-0.0375950113275871,"322":0.049155825903273664,"323":0.11069888819322386,"324":0.47104645745982193,"325":-0.20632821758033937,"326":-0.16175308297504962,"327":-0.05297368307788861,"328":-0.026145497326454423,"329":-0.06959350806391185,"330":0.1341043906433482,"331":0.3634322383760331,"332":-0.11394856943942118,"333":-0.11956390184975552,"334":-0.0162011079053578,"335":0.06904048529410983,"336":-0.051707481989459625,"337":0.0800285517155293,"338":0.4301071729426715,"339":-0.26422409452952983,"340":-0.12352849814852138,"341":0.0009690981758618443,"342":0.004788693066785408,"343":-0.04996264596680583,"344":0.03738465956486157,"345":0.5120586854531778,"346":-0.40733708735812824,"347":-0.21632412325035805,"348":-0.03516942802875271,"349":0.052799400446175,"350":-0.04654933022564263,"351":0.14602170302535616,"352":0.3127518649906196,"353":0.22690786538862767,"354":-0.1585478126221605,"355":0.0042833921717700865,"356":-0.012984631389099282,"357":-0.06419658123469107,"358":0.016105574443178824,"359":0.3164031592093633,"360":0.36067356897374503,"361":-0.024739027838916933,"362":0.052029677386313596,"363":0.02042369874657787,"364":-0.06691230138925354,"365":0.011771191625356104,"366":0.2178062308437708,"367":0.2683537436920997,"368":-0.09910158879132112,"369":-0.03179599809286851,"370":-0.02302402148348816,"371":0.02005193545373409,"372":0.004992767109568214,"373":0.22722180440874049,"374":0.2777886653693073,"375":-0.11772446928787898,"376":0.026686334165852196,"377":-0.02106266385658851,"378":-0.015217493460295752,"379":0.03825358721209595,"380":0.033749564833689426,"381":-0.4974741511988196,"382":-0.08330615582319116,"383":0.07525126987731126,"384":-0.0353340294173663,"385":0.029519365244725065,"386":-0.08517864892217006,"387":-0.010816172640591731,"388":-0.2595296956957897,"389":-0.06507672296322776,"390":0.008819278616660726,"391":-0.010602170493051505,"392":0.05278072167950852,"393":-0.004545074046698251,"394":0.06471442922553437,"395":-0.15022798990340686,"396":-0.03259840802820612,"397":-0.03349385790181985,"398":-0.04469159148127253,"399":-0.06697620886108584,"400":0.030474051774262524,"401":0.10283062519144245,"402":-0.06019290605417203,"403":-0.04589454344756433,"404":0.06480397558429707,"405":-0.02186422942456691,"406":0.03723086082468,"407":0.06713481151224301,"408":0.09482248369772284,"409":-0.10842287537515712,"410":-0.04343190059761934,"411":0.05589208815717986,"412":-0.007664011538095788,"413":-0.03319259190158658,"414":-0.1819896889442617,"415":0.10209092941588989,"416":-0.1510339872468888,"417":-0.01425932296695678,"418":-0.08765088432127,"419":-0.06782554294386078}},{"sx":1,"sy":1,"depth":420,"w":{"0":-0.038128440484139575,"1":0.049453922367301145,"2":0.009364861685969561,"3":-0.06195403283412121,"4":0.10652959559025156,"5":-0.07633975039167115,"6":0.12199590403366044,"7":-0.0020022287147682324,"8":-0.026831542693711682,"9":-0.03918657667382072,"10":-0.041273774741637764,"11":0.13125942642571234,"12":-0.0013527925355778106,"13":0.027416818090509356,"14":0.08225045901101563,"15":0.004582395150741767,"16":0.10086777492651494,"17":-0.0022816452621510176,"18":0.027512524684881447,"19":-0.06781992439724306,"20":0.06467397922669067,"21":0.03561269477512249,"22":-0.025333780499902633,"23":0.07214003046103805,"24":0.020087294926404667,"25":0.080834359721904,"26":0.0029498408629783277,"27":-0.030293176459171105,"28":-0.052052912084211346,"29":0.05520073241246642,"30":-0.03299458659358782,"31":0.010866782890146956,"32":0.08791104999254923,"33":0.006142216297011161,"34":0.030079430513797894,"35":-0.03763591593313338,"36":-0.08432997555186265,"37":-0.09491698517248277,"38":-0.05930975549889427,"39":0.0006835676150326869,"40":-0.028807116446434772,"41":-0.003221530653430229,"42":-0.022162028613820727,"43":-0.02096462473483558,"44":0.00024031246980065483,"45":0.0729515578442081,"46":0.11853564768989552,"47":0.03856149526475755,"48":0.049656514790724395,"49":-0.022867611484644817,"50":-0.009228586516349436,"51":-0.019918550427406916,"52":0.13235734119694334,"53":0.11608970117131777,"54":0.04875493345972498,"55":0.07223704201418589,"56":-0.05199155409314104,"57":0.014154522162869592,"58":0.04257475600271562,"59":0.045770518341139745,"60":0.2633989449912272,"61":0.07610637191892336,"62":-0.004761749725703052,"63":0.018446952323342862,"64":-0.07349847452829812,"65":-0.021338520640690705,"66":0.08910416757908708,"67":0.021949321469739047,"68":0.009449204445588198,"69":0.11887067309357789,"70":-0.08306472227461013,"71":-0.13597265586441662,"72":-0.07304729906390595,"73":-0.11028702361177774,"74":0.07842796354529724,"75":-0.02740781307216895,"76":0.013671884120869077,"77":-0.011509672357831728,"78":0.06289785062609021,"79":0.03560102941852748,"80":-0.02899507460446799,"81":0.0902416938452268,"82":0.04763132410968154,"83":0.0368105058139183,"84":-0.050921027136976715,"85":-0.11139745760571194,"86":-0.18265216759777297,"87":-0.07406188622879965,"88":0.053761001831565694,"89":0.07974911062253051,"90":-0.06175290794534671,"91":-0.0801187160927812,"92":-0.15896121384735823,"93":0.034208723817122845,"94":0.07697264354842001,"95":0.17219584741227623,"96":0.01109833855808244,"97":-0.08690705487177136,"98":0.04261682115185694,"99":-0.02164607108855714,"100":-0.05728999419875798,"101":-0.0868900523400166,"102":0.016324155003548155,"103":0.026690222307994605,"104":0.01811839389237611,"105":0.06440478330251835,"106":0.04115361767785318,"107":0.015106549479619385,"108":-0.04100267096162526,"109":-0.04531272718625906,"110":-0.0813196852353485,"111":-0.07133212297308084,"112":0.08772015482585405,"113":-0.1410607239180281,"114":-0.029932692614782333,"115":0.07976706781141832,"116":0.08517627576176638,"117":0.051978458996668996,"118":0.0491857613721965,"119":0.006097704772046269,"120":-0.0010084460688500477,"121":-0.069358390851089,"122":0.1303017835676915,"123":0.10118349319744063,"124":-0.04699526715722581,"125":0.03222614743884073,"126":-0.07591946842139655,"127":0.02065384581077034,"128":-0.07528556107433708,"129":0.1251100654001132,"130":0.013809518168727332,"131":0.007013539245325279,"132":-0.09684353051667427,"133":0.1096026348802346,"134":-0.02669737203938385,"135":-0.03862391012814009,"136":-0.023734061862764083,"137":0.01997424831213389,"138":0.016945544228547254,"139":-0.04352417515198123,"140":0.04396456803437906,"141":-0.006528128546252708,"142":-0.10400043803588438,"143":0.008649857610359636,"144":0.07482189123826685,"145":0.10396097529671798,"146":-0.037316290042347794,"147":-0.08131229901760612,"148":-0.05173723658897271,"149":-0.09084029263073484,"150":-0.05974077880276014,"151":0.08350942494880757,"152":0.07656272090954948,"153":-0.03956122535106647,"154":-0.019689350163806636,"155":0.061702935204777036,"156":-0.11806921618140177,"157":0.06219330980258951,"158":0.09790036499367522,"159":-0.06330028983730689,"160":-0.0282804348314665,"161":-0.006431138500145714,"162":-0.017387537998912433,"163":-0.10686758052417229,"164":-0.031388069886962376,"165":0.09320298369870875,"166":0.01008305565251817,"167":-0.05821422005780053,"168":-0.0853193864809173,"169":-0.032302969117152074,"170":0.020261354569955328,"171":-0.16092808145905096,"172":0.045087929894027955,"173":0.049147400226079004,"174":-0.046777731330736635,"175":-0.0502201533262722,"176":-0.03810624568076165,"177":-0.12214627270370428,"178":-0.09504898432041872,"179":0.025120767630278196,"180":0.07847913628323096,"181":-0.02532982091753925,"182":-0.07476911056057907,"183":-0.09845692458913018,"184":-0.07690561739713962,"185":-0.11188985255490018,"186":0.06660641232967265,"187":0.03233200695024355,"188":0.030751670799451906,"189":-0.00958276246426302,"190":-0.024921484700900536,"191":-0.08896939851359986,"192":-0.019175999816712603,"193":0.045050930051255024,"194":-0.1276527970679,"195":0.05349642059287879,"196":-0.10375975404700574,"197":-0.12984813796802328,"198":-0.1748812886248497,"199":-0.08630408754005374,"200":-0.025246713458496415,"201":-0.04394143694550226,"202":0.005482197507286087,"203":-0.01783374048052152,"204":-0.0006179154276540848,"205":-0.0923196797299458,"206":0.018786138313909545,"207":0.00821903883720556,"208":-0.027034936235273057,"209":-0.008991939015447916,"210":0.09118997186816835,"211":-0.00912715056080442,"212":-0.04787191334032083,"213":-0.052060426926187314,"214":-0.010776204648240794,"215":-0.0409333752104886,"216":0.047167235291501575,"217":-0.027583845286539337,"218":-0.1263357763190115,"219":-0.17980980349323578,"220":-0.07501287507437002,"221":0.03196500360094113,"222":-0.0017399030602500232,"223":-0.007388571323370868,"224":0.00866695504159299,"225":0.013176766278846437,"226":-0.12943243861215206,"227":0.00618483210783752,"228":-0.056103585885036764,"229":-0.030143247356255256,"230":-0.0037324663520654057,"231":0.0681286206794841,"232":0.07239571010785867,"233":0.023288889752504753,"234":0.08744898780962435,"235":-0.04179797644642638,"236":-0.009945363718206863,"237":-0.04814401662799458,"238":0.04684694122107816,"239":0.043357507246054694,"240":0.03155517261260871,"241":0.03072234618593425,"242":-0.01361387506336145,"243":-0.1571621015988185,"244":0.0340909859547925,"245":-0.0522606616408692,"246":0.049403100405427475,"247":-0.03094382515755119,"248":0.12698294311313774,"249":0.035984620523998576,"250":-0.07546315436528066,"251":-0.04248060029599125,"252":0.007042283945081552,"253":0.12918923095807489,"254":0.02135505665654163,"255":-0.042802043862973954,"256":-0.02804904630580674,"257":-0.04554465408487179,"258":-0.0064747427678733555,"259":0.061848787932936695,"260":0.0694462118064942,"261":0.07802637142947781,"262":0.07846443254636998,"263":0.02827635812036453,"264":0.0931585776454183,"265":0.05567068530363992,"266":0.013188305621277562,"267":0.03591231569609972,"268":0.18965189589123707,"269":0.14514376597229625,"270":0.06885822985777496,"271":0.10049980329563264,"272":0.022200433852667307,"273":0.01815992236003511,"274":0.03650347766929305,"275":0.16356798499118608,"276":0.2173802941107518,"277":-0.09062328628813726,"278":0.09956652721779254,"279":0.015810727933589622,"280":0.060655639311644305,"281":0.057807380071304405,"282":0.09570491529103171,"283":0.6252213849382976,"284":-0.10309901729725068,"285":0.018869397093550906,"286":-0.029235177941382588,"287":-0.09369795736829126,"288":0.07186717792337728,"289":0.14510208236339858,"290":0.5402723304860859,"291":-0.007431719117244296,"292":0.09681700525541771,"293":0.15979377852138574,"294":-0.060388717549994295,"295":-0.016959093607361496,"296":0.23128768430172808,"297":0.6172645432836982,"298":-0.07643598371956765,"299":0.08106959645496947,"300":-0.009771522206756351,"301":0.01774576333209315,"302":0.0715649198435846,"303":0.005505636387091904,"304":0.6225012742618112,"305":-0.24368845482850507,"306":-0.021286006768491093,"307":0.05185979801491563,"308":0.04314319507406204,"309":0.13189905689597287,"310":0.06156907317289374,"311":0.736229023789976,"312":-0.35156291099453124,"313":0.09600399904701679,"314":0.000824083759111233,"315":-0.044760597996362825,"316":0.07145636860262747,"317":0.08501182578558555,"318":0.6937673050153828,"319":-0.3591704362512651,"320":-0.016550324155579364,"321":-0.053081216535230936,"322":-0.004316274726695068,"323":-0.06605034087496196,"324":-0.018314004645674793,"325":0.6047861592816551,"326":-0.25156896728207623,"327":-0.021119045651667247,"328":-0.04632335479334856,"329":0.09330838056449628,"330":-0.09379545320170851,"331":0.13652639643899556,"332":0.33398970279337287,"333":-0.1630233348887453,"334":-0.05109354227441541,"335":0.11507748598214067,"336":0.03863886599816837,"337":0.03297140364091433,"338":0.04084468916842463,"339":0.2744556359413273,"340":-0.20623340821174901,"341":-0.06700883637684407,"342":0.11386846420481608,"343":0.022522729358314696,"344":0.013206144966143816,"345":-0.054539293513465856,"346":-0.08264412178617274,"347":-0.3589280209886079,"348":-0.04963023242799986,"349":-0.028312389323177,"350":0.052273719001653146,"351":-0.01745604865965748,"352":-0.11333671398796086,"353":0.21364732906523817,"354":-0.3667386093148731,"355":0.03155265205908181,"356":0.0004483081683753938,"357":-0.050244520874118986,"358":0.009864657258891107,"359":0.012516891242827552,"360":0.1574946424894949,"361":-0.13571139414132333,"362":0.09839701936274922,"363":0.0053879008613080676,"364":-0.0710240477040398,"365":0.026938074863662707,"366":-0.060043624575634225,"367":0.21329814695546742,"368":-0.32341878940932905,"369":0.014136166940359301,"370":-0.08687411654872261,"371":-0.02923332837190242,"372":0.07572023110269946,"373":-0.09965399424957817,"374":0.12635262576318113,"375":-0.4205008977035634,"376":0.019691002887760926,"377":-0.05269188177546064,"378":0.04352431854247023,"379":-0.08635556131801521,"380":-0.06497916388484075,"381":-0.1816574382122447,"382":-0.20335048078330586,"383":-0.0198824556930068,"384":-0.05208868598213868,"385":-0.029492320616618533,"386":0.0034216413040511063,"387":-0.18488987712617772,"388":-0.2772900324249796,"389":-0.17145106208683858,"390":0.020017052150392022,"391":-0.07868426166207863,"392":0.062293192300024086,"393":0.06653832613208416,"394":-0.021753822986030444,"395":-0.2117813838937457,"396":-0.15918716597561647,"397":0.012707581042019576,"398":-0.09072757769516851,"399":0.013092711383746236,"400":-0.016521773215757058,"401":0.07431294517882113,"402":-0.20804593231095042,"403":0.09477488674875495,"404":-0.09478680999109836,"405":-0.07193814353678543,"406":0.12886926423770098,"407":0.037400800195008466,"408":0.09403468648417779,"409":-0.1730193166800522,"410":0.0026091289417087145,"411":-0.06946148241787001,"412":-0.014221823100193652,"413":-0.07913877108866044,"414":0.10093886016257897,"415":0.09915537231829873,"416":-0.02720777212802663,"417":0.004052793222457287,"418":-0.04828454637684703,"419":0.09164970706599287}},{"sx":1,"sy":1,"depth":420,"w":{"0":-0.03483685373105131,"1":0.09584102570233415,"2":0.0804378298523856,"3":-0.03607472795749779,"4":0.08659041995951013,"5":-0.14622490762184798,"6":0.0977606530426975,"7":0.0067251096997678755,"8":0.04290601363078699,"9":0.08334278959455177,"10":0.022489936668590147,"11":0.07468603975485895,"12":-0.14479977846775618,"13":0.006789098785367175,"14":0.03134523902796724,"15":0.028836993816649274,"16":0.04776061075078127,"17":-0.01778725778560423,"18":0.020253083146780548,"19":-0.1505415591318356,"20":0.018297306261505508,"21":0.012734850204918092,"22":0.11568284859329085,"23":0.05082163233040207,"24":0.005025869702792413,"25":0.0011942446139037452,"26":-0.09349464799553155,"27":-0.007272011728417115,"28":-0.035137154913418976,"29":0.09930433030134285,"30":-0.016775749095790438,"31":0.06502909594504219,"32":0.0715119945099353,"33":-0.10051019698817734,"34":0.022114174712373896,"35":0.06767116804783437,"36":0.04904843412376466,"37":0.08455521852368725,"38":0.08990126855902449,"39":-0.06341511113564677,"40":-0.07024643087231619,"41":-0.04971532234915807,"42":0.06317704451366087,"43":0.06078738753855888,"44":0.05719208922188209,"45":0.14515478779799507,"46":-0.0496821933034602,"47":0.04582337966889541,"48":-0.03251327897554095,"49":-0.04473947293157014,"50":0.007905180865607682,"51":-0.015015750528627947,"52":0.041611098087937254,"53":0.053321057906180074,"54":-0.044003618121961116,"55":0.001474207198905113,"56":0.006301902685059671,"57":0.0843730063535831,"58":0.02651155753273466,"59":0.1966792394254822,"60":-0.023753741864682404,"61":-0.03554461495593559,"62":0.030368057836586193,"63":0.06741112855800205,"64":-0.05252118364360776,"65":-0.08045442785045664,"66":0.07241294385088898,"67":0.05469503337152509,"68":-0.028747802954989576,"69":-0.05587708238378247,"70":0.07414003929318005,"71":-0.025178629335699254,"72":0.06871738960735363,"73":0.15912174470649393,"74":0.06406185796473515,"75":0.02364850374001552,"76":-0.16934236366470354,"77":0.08429811832163417,"78":-0.10634320436362256,"79":0.003012339599572358,"80":0.11817445929136682,"81":0.08318655846215313,"82":-0.024337040008885952,"83":0.007797025414745482,"84":0.09171715240245647,"85":0.011159189378867578,"86":0.012071413966482763,"87":0.0173830984140396,"88":0.15536985378401078,"89":-0.05422212910833914,"90":-0.07031319788832588,"91":-0.014316080845214487,"92":0.03359897294046618,"93":0.0414874934917369,"94":0.06479801317857947,"95":0.023581567464474776,"96":-0.03973365612538795,"97":0.0005181810155624753,"98":0.05517200543966575,"99":-0.008141634142271988,"100":0.062206281385631355,"101":0.002150086640875316,"102":0.029751710103440257,"103":0.04543403156759046,"104":-0.012248398934829827,"105":0.03197920149502771,"106":-0.019739402151321292,"107":-0.00264563041676811,"108":-0.09612643259259424,"109":-0.01294526437155896,"110":-0.0014538111940585836,"111":0.02050903244649764,"112":0.002997661758551367,"113":0.11732866875424408,"114":0.05629597286159541,"115":-0.02893982167124935,"116":-0.017342932611861636,"117":-0.09683426301880312,"118":-0.08844883559660668,"119":0.05372417049228389,"120":0.012114076606106262,"121":-0.01996978929654389,"122":0.016779902771038975,"123":0.010084739876053572,"124":0.004839968674806914,"125":-0.04606474134207735,"126":0.03653893134070276,"127":0.037116011336486156,"128":0.013110870067238427,"129":-0.01286158281757644,"130":-0.046308476716500103,"131":-0.040347077627388095,"132":-0.054263195864619175,"133":0.007186121249635044,"134":0.006129346442848173,"135":-0.033334526045321264,"136":-0.07496824453688343,"137":-0.041974297559607195,"138":-0.09320331420355857,"139":0.074995010375624,"140":0.013925418665759037,"141":0.002432125622606963,"142":-0.02299804167327959,"143":-0.00711112872938493,"144":-0.017975721296838058,"145":-0.1025261886250424,"146":0.08440950142999734,"147":0.016097023280548243,"148":0.07249166260536626,"149":0.09620407460235898,"150":-0.07925167585000631,"151":0.011532189451979471,"152":0.04234371089182863,"153":0.03159251924539011,"154":-0.04170111381008446,"155":-0.11919338947334485,"156":0.03993360509412947,"157":-0.047421456866815793,"158":0.08371430153523313,"159":0.015533183539705916,"160":-0.028894193086298217,"161":0.007372442811188991,"162":0.031567497569506456,"163":0.07626765799660645,"164":0.023895609912287806,"165":0.066627510379806,"166":-0.022384983359026746,"167":-0.02375185139836348,"168":0.04529071799786632,"169":0.03169309528128108,"170":-0.05900540332686795,"171":0.011011515614514605,"172":0.07267345739583904,"173":-0.054370161357278325,"174":0.06810297840389629,"175":0.1047388035178762,"176":0.005389541380730495,"177":0.066149010065072,"178":0.0782004297040995,"179":0.09069903633972992,"180":-0.14379949902587158,"181":-0.09468943941135369,"182":0.028453062376152426,"183":0.06255834451885146,"184":0.005923749635948593,"185":0.0691879400308714,"186":0.018931843038966206,"187":-0.03899961603005743,"188":-0.06071537412398193,"189":0.007570581579194947,"190":0.04997183075989113,"191":0.01119303187160109,"192":0.03984115055038712,"193":0.05100958950451328,"194":0.031047164228350518,"195":-0.0503801203384642,"196":0.048957112905563115,"197":0.019925100167023094,"198":-0.013547770338508694,"199":0.040475983913126054,"200":0.021603913531640512,"201":-0.0035986997447769085,"202":-0.0689730974453304,"203":0.014949516478037814,"204":0.0593011849612319,"205":0.04070823248407979,"206":-0.007752523535257203,"207":0.08897073005765836,"208":0.11247855173280251,"209":-0.046572102090948406,"210":-0.013643535336905554,"211":0.019907501867231028,"212":-0.03642157159522074,"213":-0.084575740223341,"214":0.03564994038285846,"215":0.09394394896967584,"216":0.004752162659918941,"217":0.01023105660331947,"218":-0.060958838922841804,"219":0.09074841304471087,"220":-0.007367307956669574,"221":0.02557374551201877,"222":0.08635436200971237,"223":0.006025153404697652,"224":0.06998596009233427,"225":0.04665348454659829,"226":-0.032092414919950824,"227":0.044433987545844426,"228":0.10108410907511634,"229":-0.09815906950674026,"230":0.04016258174626991,"231":-0.02024129685334037,"232":0.026591674500764502,"233":0.014468149417099249,"234":0.13859828821477468,"235":0.06369474910615207,"236":-0.016547773900609648,"237":0.009758955172625046,"238":0.004077177684320838,"239":0.048862980079518,"240":-0.037705173807213686,"241":0.00877705414806951,"242":0.008082483187169611,"243":0.030134215400914884,"244":0.03854617252344911,"245":0.03862979192466164,"246":0.03555136616983554,"247":0.07955293063575221,"248":0.18903948110091057,"249":-0.09284438719255501,"250":0.04705580788249245,"251":0.04477294094148514,"252":0.015468061390041995,"253":0.016549373159913904,"254":0.09720714524122333,"255":0.15036260756141923,"256":-0.0193279948896602,"257":0.05121071754561514,"258":-0.0032393721075729826,"259":0.028358526881132426,"260":-0.009232303710747245,"261":0.016165395225511418,"262":0.12337460499844803,"263":-0.05799276682881485,"264":0.06341922918816575,"265":-0.02899177377352673,"266":0.0026549868210071605,"267":-0.02700154139940476,"268":0.020864538401395287,"269":0.09608240494698965,"270":-0.03280447864562206,"271":-0.016295091482567196,"272":0.049255185271328286,"273":0.09515189361988344,"274":0.016688698534647495,"275":-0.07173494918903331,"276":-0.002615543133026129,"277":0.015595612732799585,"278":-0.00547517918393977,"279":0.043255007027517875,"280":-0.011372259704993922,"281":0.08191581438769262,"282":0.005534974850656711,"283":-0.00962879446389968,"284":-0.005494282429351925,"285":-0.007735426553523177,"286":0.09175156086735237,"287":-0.011172319140600347,"288":0.01626003968871657,"289":-0.015022792068529862,"290":-0.05669046179543582,"291":0.026497224532513318,"292":0.12601700585289044,"293":0.008133745073220814,"294":-0.010377255015129384,"295":0.0015124866487989511,"296":-0.036327139956594666,"297":0.08944637482186146,"298":-0.015471905381280023,"299":0.12219269811567658,"300":0.08004008068421029,"301":-0.02759473831280517,"302":0.07298536996619504,"303":0.08583840840510672,"304":0.007254851658626295,"305":-0.06506849094547522,"306":0.07515452341006076,"307":0.06445121629124913,"308":0.0017813505136535222,"309":0.005598652913167255,"310":-0.08001196130089247,"311":0.019757161005217704,"312":-0.17131150189610647,"313":0.054981295810777306,"314":-0.06233298380265806,"315":-0.004369961041742919,"316":0.03750877418436092,"317":0.0005931992101238126,"318":0.007942441838821389,"319":-0.07560114274826268,"320":0.0656588829272334,"321":-0.0659617041468142,"322":0.0359220280224,"323":0.07311612381180406,"324":0.028571967214671493,"325":0.022406449302599003,"326":-0.07560914757635616,"327":-0.043212726375605456,"328":-0.00382252235104939,"329":-0.02999052369154485,"330":0.02819152662153926,"331":-0.04027205952942291,"332":0.003928841269278252,"333":-0.07713496651555288,"334":-0.08073503352327685,"335":0.02625211150353578,"336":-0.029177306612340633,"337":-0.047137975001162735,"338":0.015421622835463531,"339":0.1412263779924432,"340":0.07533435617183284,"341":-0.055724082712224635,"342":-0.00691601249766355,"343":-0.05873228967077948,"344":-0.020703514439510535,"345":-0.0053056494661981295,"346":-0.0016405497244963015,"347":0.12589692476512673,"348":-0.007330106580398763,"349":0.007606870277990786,"350":0.06559248022336946,"351":-0.04937719177941811,"352":0.06748636058568454,"353":-0.015104982843780156,"354":0.10909358144788563,"355":-0.061754035993987495,"356":0.027064767913326352,"357":-0.006786742525797554,"358":0.06054270537465895,"359":0.057776510052741724,"360":-0.041426361972657984,"361":0.1543549241557069,"362":0.08681699441831141,"363":-0.06785840895689996,"364":-0.024341324324857673,"365":-0.016447330140883117,"366":0.06731742722461657,"367":-0.014130205767471904,"368":-0.019552337238466826,"369":-0.015327613448063226,"370":-0.06920127611979227,"371":-0.05052247599932842,"372":-0.0038909389838844236,"373":-0.0710914584394054,"374":0.037819497640649326,"375":0.011019353402990645,"376":-0.008999482134548098,"377":0.07337564563789867,"378":-0.04774267302320671,"379":0.07506006925264107,"380":-0.010218775082211288,"381":0.09776814605830261,"382":-0.0443221709958337,"383":0.014584252254347757,"384":-0.11112005101709282,"385":-0.018106880493641113,"386":0.02604897555249159,"387":-0.04157589379848306,"388":0.04299853109067188,"389":0.08390100319350091,"390":0.040751108180841454,"391":-0.10047374135517524,"392":0.04621348713612579,"393":0.02637640946162274,"394":0.02982753884812328,"395":-0.0360522167877561,"396":0.07072618797444119,"397":-0.020595627968686307,"398":-0.01768833433487803,"399":0.056890820353072975,"400":0.1270346026886619,"401":0.07152854346308321,"402":0.0007682008288375107,"403":0.06467410224190917,"404":-0.03614620099790551,"405":0.003970721533535282,"406":-0.047450287106753426,"407":0.06746610660446883,"408":0.06474607662550864,"409":-0.048550458065685365,"410":0.060887667392692746,"411":-0.044206678724147984,"412":0.16921836747277139,"413":0.04214002552216423,"414":0.07545240323112973,"415":-0.0697617346311112,"416":-0.031018293382032994,"417":0.11101255811546816,"418":-0.045709318854443716,"419":0.07291111926145108}},{"sx":1,"sy":1,"depth":420,"w":{"0":0.10114134802016211,"1":0.15430405318293294,"2":0.14508043092663278,"3":0.1450482502961553,"4":0.145845365826252,"5":0.07909615296021254,"6":0.013329029020255225,"7":0.031918159852898496,"8":0.08719432902250103,"9":0.08488744623345404,"10":0.09693433871751861,"11":0.0509644949835395,"12":-0.05124314452501897,"13":-0.02578798993203668,"14":-0.009496878066078828,"15":-0.03468713231524952,"16":-0.008663735333512286,"17":0.03531414042359798,"18":0.08112818707824761,"19":0.0013073966209920808,"20":-0.07329770573306756,"21":-0.017612711879216047,"22":0.00010045417093699295,"23":-0.07570554163296575,"24":0.041549579012407856,"25":-0.0002340535330657258,"26":0.006109053465302827,"27":0.05439932057822032,"28":0.0709713710195601,"29":0.13861892046777885,"30":0.14503025316139956,"31":0.1499213836247668,"32":0.028898199326921475,"33":0.049305912220513184,"34":-0.08738648551737667,"35":-0.03762824101914193,"36":0.09542453153971042,"37":0.05791292230782762,"38":0.0440291880531775,"39":0.06683024410297213,"40":-0.014596926188168918,"41":-0.1060222259931163,"42":0.019191774611796473,"43":0.02531563085851086,"44":-0.09425410985080632,"45":0.04054166822634889,"46":0.0014142794687817739,"47":0.023880682326765705,"48":0.05497252185322436,"49":-0.02212461586172425,"50":0.07546292328689115,"51":0.011337520802573517,"52":0.022468048320896092,"53":-0.011736419045646668,"54":-0.024862046666061555,"55":-0.011967788654202824,"56":-0.005126051009648941,"57":0.014404462433587324,"58":0.06588306436876795,"59":0.06804137211120714,"60":0.04778405305044864,"61":-0.007572496812550462,"62":-0.008760559365905229,"63":0.019264070473906655,"64":-0.002614666797354957,"65":0.010114974094315193,"66":-0.007324581106399144,"67":0.03199432189193324,"68":-0.04225250860106483,"69":-0.0306347863879599,"70":-0.01900238148586275,"71":0.015006749850609959,"72":0.01723475656811637,"73":-0.021295078367869293,"74":-0.030946055989055716,"75":-0.0022501643523114294,"76":-0.03414807342813305,"77":0.04610621685944289,"78":-0.0029698917692077323,"79":0.00921442092058553,"80":-0.03668220773592664,"81":0.06042190400502905,"82":0.020046392328774174,"83":0.024675432632447036,"84":0.018607949532307492,"85":0.02898834265678007,"86":0.07034689316364917,"87":-0.004232046838540645,"88":0.0006819658644583133,"89":-0.04622204808100959,"90":-0.005965548475656328,"91":-0.02216584237163807,"92":0.06089494665812988,"93":-0.017729958327202238,"94":0.021376332343033592,"95":0.015365299247113143,"96":-0.03081728615603996,"97":0.006430709031018685,"98":0.008304964025089607,"99":0.0015882895519490161,"100":-0.04272915044592067,"101":0.011391210646382958,"102":-0.027487226442670785,"103":0.07707596437192665,"104":0.0606723079099076,"105":0.0789418018081892,"106":-0.006010423431742306,"107":0.019570364273338112,"108":-0.03819609155521535,"109":0.004261340662027714,"110":-0.1279193865626413,"111":0.028374913305445167,"112":-0.02117304338563516,"113":0.01813016115782795,"114":0.09546352088046882,"115":-0.023197239833332117,"116":0.04700958226166093,"117":0.01504424873546919,"118":0.05302219929940455,"119":0.007439588745727662,"120":0.07401739432514749,"121":-0.017348861486754717,"122":0.031358653294083154,"123":0.03860028793673176,"124":-0.03327740968482016,"125":0.013065017901900976,"126":-0.04364849839480618,"127":0.025961267693022483,"128":-0.030367988735890503,"129":-0.03726250983424346,"130":-0.020633124513660412,"131":-0.028891094768522745,"132":0.03434255181768744,"133":0.04922091366190437,"134":0.0394248069664205,"135":0.03534591925291545,"136":-0.026447562658744574,"137":0.028738950569046268,"138":0.03222720850416982,"139":-0.028065486322655934,"140":0.04958648951958797,"141":-0.00003829770712513071,"142":-0.03439842657702655,"143":-0.0029532128832979784,"144":-0.06341323962486241,"145":0.022574618227283523,"146":-0.022938244033821623,"147":-0.03794809845426582,"148":-0.004856076922085778,"149":0.06949337982326188,"150":-0.04515737532431058,"151":0.033725749213060326,"152":-0.1059331989165332,"153":-0.05286814601852803,"154":0.0051315913128911796,"155":0.033545625054645714,"156":-0.02774839652204885,"157":-0.07139246228329105,"158":-0.07751104551405943,"159":0.0119012104179943,"160":-0.0009861857438626493,"161":-0.012019598709650855,"162":0.061150949591541,"163":0.014837693363748431,"164":-0.0883329036509512,"165":0.0060003654752360715,"166":-0.015401574784424192,"167":0.007063981144816793,"168":-0.008223850532422295,"169":0.018604519321898168,"170":-0.014925668079751838,"171":-0.08921573056158019,"172":-0.03876744754792867,"173":-0.04492461657864646,"174":0.013279744131049761,"175":0.015185960167562323,"176":-0.05070717086154128,"177":-0.031497182958886524,"178":-0.04278255246374293,"179":-0.010175574657043515,"180":-0.07478878055175278,"181":-0.046563451339037255,"182":-0.02713285685488213,"183":-0.02256621476993033,"184":-0.00702153115949243,"185":-0.04224007655980757,"186":-0.13514203506721903,"187":-0.028276894830004486,"188":-0.06532909275647195,"189":0.005881453564779632,"190":0.02546990509808819,"191":0.021621992576425605,"192":-0.08576985365069051,"193":-0.0178056449079161,"194":-0.06502202310203802,"195":0.02367604017124719,"196":0.06651547116415436,"197":0.04144621155377047,"198":-0.02352745413406775,"199":-0.08840644779052445,"200":-0.07313625936365178,"201":-0.04842237933964425,"202":0.06663169924032725,"203":-0.01496458329770952,"204":0.035380876669245304,"205":-0.02991269748764306,"206":-0.10073993777682026,"207":-0.06310140269295877,"208":0.03957734734034277,"209":-0.058316045105123476,"210":0.053003859129435914,"211":0.08038637205197001,"212":-0.04294704953898434,"213":-0.18739560384921133,"214":-0.015374539288482657,"215":-0.016504524706744017,"216":-0.0465240224607913,"217":-0.0664539682834154,"218":0.06021441987444227,"219":0.0109849671457049,"220":-0.19024530140295173,"221":-0.08087921935349596,"222":0.08622920553776996,"223":0.04816927174362253,"224":0.01597169348277987,"225":0.047413733643715116,"226":-0.10286158782771322,"227":-0.2253484364528326,"228":-0.08767963115917074,"229":-0.0897000539766913,"230":0.04681904029694448,"231":0.0668431436670431,"232":0.006704321687465671,"233":-0.027603181079407263,"234":-0.11500369832304713,"235":-0.013162008710986238,"236":-0.004090349042326258,"237":0.03773581544277648,"238":0.0298422796550408,"239":0.10275737235282432,"240":-0.004862251649044092,"241":-0.14089695824627524,"242":-0.007391425976535545,"243":0.05285617907271301,"244":0.06601261802607065,"245":-0.035596477138073866,"246":0.004633217537065421,"247":-0.05805865050667242,"248":-0.19434862111611018,"249":0.10890215312642804,"250":0.018193543936508367,"251":-0.015501154237086303,"252":0.01829942598789685,"253":0.08263238857195514,"254":-0.08727495710531932,"255":-0.2821331814239489,"256":-0.12135537810124228,"257":0.05834096898979377,"258":0.047704407052527355,"259":0.08323147029632333,"260":0.049186791773845676,"261":0.15138001973739104,"262":-0.2429438340830193,"263":0.007597163565416058,"264":0.021095783106985365,"265":-0.00931176087510261,"266":-0.01775926332203983,"267":0.04451241246305354,"268":0.012654043717869764,"269":-0.17076276689280792,"270":0.061897595011092967,"271":0.07412178530477367,"272":-0.03425522212060478,"273":0.035412635850128084,"274":0.08820385484192145,"275":0.07496633684153167,"276":-0.28294882399765403,"277":-0.12838147954036302,"278":0.06129728807820094,"279":0.0639463158029023,"280":-0.030583035351453666,"281":0.14004291611371722,"282":0.003849295089746272,"283":-0.13025891672797624,"284":0.010835228479380276,"285":0.022965889164996724,"286":0.03714306062831407,"287":0.0735993112717023,"288":0.04181553409449936,"289":0.06205874393345936,"290":-0.13678920655651486,"291":-0.03132754676680842,"292":0.060265541194348834,"293":-0.009646553098490924,"294":-0.06405028793633602,"295":0.13597237405635101,"296":0.08864990917904908,"297":-0.10834973740526713,"298":-0.1341973151197826,"299":0.10822991503584684,"300":-0.05318826046104932,"301":0.0023406431690221777,"302":0.0481458540063582,"303":0.09251132268345175,"304":-0.21626358830113918,"305":-0.07805367481337643,"306":0.038274319973571384,"307":-0.0072468222219683005,"308":0.0021038822839750363,"309":0.10898252222478177,"310":0.11743446186554794,"311":-0.09459613465901079,"312":-0.06105950445879459,"313":0.020108038893253216,"314":-0.01008381568869565,"315":-0.02696306480186484,"316":0.043343700679268224,"317":-0.01740157493452731,"318":-0.3198711615099757,"319":-0.1029149987636258,"320":0.029650598284883662,"321":0.013761906352496385,"322":0.052687565147602776,"323":0.04369825741510924,"324":0.0632226302829865,"325":-0.34603725790069834,"326":-0.07946114376066235,"327":-0.0018788346521726575,"328":-0.004507427834454911,"329":0.0005865737728430163,"330":0.014411167658384124,"331":0.0813342121236924,"332":-0.09787947718156602,"333":-0.029471974792400556,"334":-0.04688942896909228,"335":-0.05989081072046947,"336":0.017557888081088272,"337":0.09819482084745677,"338":0.13213288349545238,"339":-0.032443336511295294,"340":-0.1103024176527413,"341":-0.07904776052092091,"342":0.014013065846843212,"343":0.11319297937535072,"344":-0.003420692023723683,"345":-0.08102118149868574,"346":0.19873523407749985,"347":-0.13819132594203953,"348":0.013407098754711575,"349":-0.009688136444184106,"350":0.028038087978855104,"351":0.001374167037781199,"352":-0.022089845955988913,"353":-0.3963571619582143,"354":-0.12791464102160974,"355":-0.08443847404671705,"356":0.05271176917484842,"357":-0.016373752633945422,"358":0.048220331300913806,"359":0.08439532501145335,"360":-0.3493723373383463,"361":0.03470366505516015,"362":0.06322102620666435,"363":0.04005224103780896,"364":0.03828958861429332,"365":0.07710614820665124,"366":0.08291880867119998,"367":-0.3768417586951001,"368":-0.01202467596758222,"369":0.005263064260333133,"370":-0.01684226790661323,"371":0.12048064429311221,"372":0.07475971583923592,"373":0.052967337646322984,"374":-0.36639657395327185,"375":-0.2616016662800281,"376":-0.010503628995310417,"377":0.011969783263306655,"378":-0.05419982513883037,"379":-0.015179592285839462,"380":-0.021897465821082557,"381":0.22937213923871044,"382":-0.1535596390662502,"383":-0.12688147863647006,"384":-0.0011383803484657294,"385":0.06768358709170325,"386":0.03350233853016728,"387":-0.0189406376350476,"388":0.2068232093474523,"389":0.04223255622539742,"390":0.010911014853769056,"391":-0.025217109196558004,"392":0.00219583434066228,"393":-0.04706972462652944,"394":0.04701825192522993,"395":0.184218121025865,"396":0.0788463637728762,"397":0.12140738999026995,"398":0.0541571039003288,"399":-0.004674188323540589,"400":0.05181578927789256,"401":-0.039757382901902845,"402":-0.30592503713773944,"403":-0.1042994491921247,"404":0.01746792404658723,"405":-0.04662167634694907,"406":-0.02234721824808591,"407":0.08442386812870833,"408":0.06403385370136987,"409":-0.2982088175301889,"410":-0.11790411130136073,"411":-0.04088249209258325,"412":0.011361124670313354,"413":0.0012290166408884683,"414":-0.008131572552465426,"415":0.10825655496927769,"416":0.1572742189085028,"417":0.10289640952916006,"418":0.003367173556320802,"419":0.008641242982749268}},{"sx":1,"sy":1,"depth":420,"w":{"0":-0.1128834051150709,"1":0.0653650581610787,"2":0.00019718856494257416,"3":0.04777054106910509,"4":-0.0627066427812465,"5":-0.019322129237571845,"6":-0.13258464170548895,"7":-0.07398686635326734,"8":0.08613089311340298,"9":-0.014673030050337972,"10":-0.0832710099524567,"11":0.013121791664625886,"12":-0.013540964937050435,"13":-0.03789857171713959,"14":0.05107303653890223,"15":0.08146749041213305,"16":-0.036257043226429926,"17":-0.028053506060689386,"18":0.039505171192290196,"19":-0.004432670362595147,"20":0.017412777311827846,"21":0.02833801021387528,"22":0.04786983868981172,"23":-0.10754940594742732,"24":0.01574038388010976,"25":0.03891545843283531,"26":-0.12146468912693821,"27":0.07966475414816575,"28":0.0057936801616038595,"29":-0.11480535577340839,"30":-0.10196666579093147,"31":0.04646423193196656,"32":-0.07425496301629832,"33":0.11130752652825965,"34":-0.10327527140693774,"35":0.04355596618017377,"36":0.05176299541922174,"37":-0.008874855768158831,"38":0.1209260257579984,"39":-0.019198215446170855,"40":0.11298455869474436,"41":-0.05119311159309137,"42":0.02164017739970356,"43":0.03814142421635526,"44":-0.034106843294802396,"45":-0.03818088723331191,"46":0.07948886658174892,"47":0.0478774265893862,"48":0.016606573844085235,"49":0.06914465723419665,"50":0.04019564461170064,"51":-0.13294511849691185,"52":0.014613716011370048,"53":0.15467022418256732,"54":-0.0775530068938117,"55":0.0810846278934834,"56":0.06219511285510946,"57":0.05304736935850484,"58":-0.11672985172412842,"59":-0.04620969626734551,"60":0.061320318137735016,"61":0.09710526142214093,"62":-0.0008736868623030689,"63":0.04881400613069102,"64":-0.09674155623105332,"65":-0.06347072394225596,"66":-0.05857171301222879,"67":0.0013016882047302714,"68":0.07863539813421876,"69":-0.03884375204074273,"70":0.07589895059748297,"71":0.1062156158807105,"72":-0.019565418439418808,"73":0.033160312309999516,"74":-0.08994204345124625,"75":0.10897537871431302,"76":-0.037716600686495946,"77":0.09579965542738905,"78":0.10710002749395549,"79":-0.0032082846997983617,"80":-0.010435155320928017,"81":-0.07419741853186353,"82":-0.05360047408479534,"83":0.08440617267556698,"84":0.08969825620424238,"85":0.08055367389597635,"86":-0.1120206909055112,"87":0.02339475164320086,"88":-0.10130419304115848,"89":-0.012054571125937262,"90":-0.0775680978835285,"91":0.04968379177977523,"92":0.11907981037688535,"93":-0.1651579093653128,"94":-0.0929243169544946,"95":-0.04615911102512556,"96":0.08759230671660372,"97":0.06378758093385781,"98":0.008023923974147553,"99":0.0952639422019211,"100":-0.054261212949369114,"101":-0.005917542789854222,"102":-0.06765151212086246,"103":0.0789280476188252,"104":-0.027039067099730696,"105":0.08959946957157633,"106":0.01758896917840884,"107":-0.037652145092239526,"108":0.029079458877713033,"109":-0.012819516975109316,"110":-0.04258627139577986,"111":0.018972007233307202,"112":0.04419555295581496,"113":-0.07852833080249716,"114":-0.09779828389276293,"115":0.022597620597794542,"116":-0.13478424415105708,"117":0.09396717665790515,"118":0.058322298250849745,"119":-0.06548023004545613,"120":0.023716177337155846,"121":-0.028640106611763458,"122":0.015621851458637924,"123":0.012600674334846108,"124":0.08125708966149041,"125":0.009142223258848042,"126":0.10388017343364264,"127":-0.019952265617385577,"128":0.13484111008964206,"129":0.11513044278026129,"130":0.02892431850877304,"131":-0.015378093346670944,"132":0.038337027641978806,"133":-0.007343765844452215,"134":-0.021174116965256205,"135":-0.1282220647907256,"136":-0.06366320007920967,"137":-0.11756617082548955,"138":-0.07349882372969962,"139":0.018921643630821435,"140":-0.03825932437910613,"141":-0.020530907365627956,"142":-0.004672168065947833,"143":0.001167755224245344,"144":-0.0399239808851195,"145":0.036819916318767486,"146":-0.05228799759540022,"147":0.0554447294627605,"148":0.05348033115766962,"149":0.052326780429602586,"150":0.05790617052806734,"151":-0.06961349386519913,"152":0.0020072013135050814,"153":0.12751922695964432,"154":0.06570055694645188,"155":-0.10497353927177436,"156":-0.12666791395963456,"157":-0.058918243910671776,"158":-0.07797052035841183,"159":-0.030777445723398956,"160":0.0663467999813603,"161":-0.08334712864208395,"162":-0.06530240065159394,"163":0.07454454076471771,"164":-0.04368024889416705,"165":-0.11873939481235779,"166":0.003581662015164851,"167":0.058050076433087426,"168":-0.09915217025692943,"169":-0.06195125141923311,"170":-0.11965819349837946,"171":0.007074240877455888,"172":-0.013045815488106625,"173":-0.13509724497033435,"174":-0.1117881010172918,"175":0.07715753043371625,"176":-0.014817696357197423,"177":-0.06771380353886047,"178":-0.02832610368235203,"179":-0.027012611076624154,"180":-0.10748470505752163,"181":0.00751182947236622,"182":-0.028101133428730652,"183":-0.10330412312390466,"184":0.08855240786483537,"185":-0.028646352458376247,"186":-0.11297973357093928,"187":-0.10297860724742092,"188":-0.09309672410338143,"189":0.13316147271665327,"190":-0.040596197130797505,"191":-0.05482504977744456,"192":0.02770886177099827,"193":0.0006650691842521354,"194":0.04469428976247965,"195":-0.13202430802494944,"196":0.1484960743169519,"197":-0.06707258789790381,"198":-0.04975442147465418,"199":0.0031786231966992613,"200":-0.09871670821204133,"201":-0.04437129199288567,"202":0.0218285199337285,"203":0.063995940982366,"204":-0.03085129932643561,"205":0.01893711748649867,"206":0.039823312629805145,"207":-0.052864295860779245,"208":-0.037844797587821714,"209":0.003268807375109855,"210":-0.007233310325652844,"211":0.036157784598683636,"212":0.027798941737473718,"213":-0.02855179265093108,"214":0.0044341182906085345,"215":-0.08141512476628035,"216":-0.06229470555764893,"217":0.04111645743820378,"218":-0.040368681793564294,"219":0.09996206756714852,"220":0.09764068032601307,"221":-0.10216749355207032,"222":0.0547073731619159,"223":-0.07548874174987265,"224":0.005255207952624763,"225":0.007502459531274949,"226":0.07445152961567578,"227":0.11522215198836834,"228":0.0065004532025162865,"229":0.10875012512448132,"230":-0.025072375395906833,"231":0.03531730740847727,"232":0.06493783312599595,"233":0.013974621021933791,"234":0.16006863702589144,"235":0.06856448212133763,"236":-0.007896967475600454,"237":0.011391622896359125,"238":-0.001486177700326977,"239":0.06474550523527964,"240":0.06957760990320029,"241":-0.013091692102443132,"242":0.02570978827107914,"243":-0.07764178048047475,"244":0.02067338452779844,"245":0.09685097760362872,"246":0.07146484004146128,"247":0.020137269279850857,"248":0.16937581213313488,"249":0.06897828816328742,"250":-0.05554207721448957,"251":-0.007371025836176307,"252":-0.11509127363690412,"253":-0.008516750618862258,"254":0.02305817540013232,"255":0.26889143948506783,"256":0.11626359205814646,"257":-0.01928105626006031,"258":-0.0004974387185684962,"259":-0.09018035370648624,"260":0.05327167123354696,"261":0.2092978164645981,"262":0.2796255286578277,"263":0.20967963091166503,"264":0.01687286171577569,"265":0.08057795877134424,"266":0.12125717114496569,"267":0.12402427759585229,"268":0.15740663277372482,"269":0.2564389819950444,"270":0.2551586936471884,"271":0.12470900063094069,"272":-0.05810796861801507,"273":-0.05459944761193182,"274":-0.05315822042910936,"275":0.057832800714986934,"276":0.39368696836170586,"277":0.12334936767346354,"278":0.048520689758552504,"279":-0.0015900484932343801,"280":0.02817648124601473,"281":-0.0033231852537456037,"282":0.07525875516181421,"283":0.22261314231373988,"284":0.2592836372705897,"285":0.03716094591322818,"286":0.20537481213752778,"287":-0.08449547941818387,"288":0.09923199526572461,"289":0.29338129675533564,"290":0.37190952893895574,"291":0.23418854050009405,"292":0.12844013425455336,"293":0.019752362422325156,"294":-0.15329814265212854,"295":0.015020043708063717,"296":0.3589672969053297,"297":0.33169546970127756,"298":0.446858499967053,"299":0.008020933291369799,"300":-0.11698179792066538,"301":-0.033981009051092054,"302":-0.033460310169133235,"303":0.347199283992707,"304":0.6478416297828644,"305":0.33046853351923716,"306":0.04662619301109631,"307":-0.08562515940485213,"308":-0.08040953612912254,"309":-0.0467490056354517,"310":0.32920718840557534,"311":0.4011874549515903,"312":0.5507509414504331,"313":0.10687169913898384,"314":0.008649510607099257,"315":-0.03177383241654375,"316":-0.04197858942022415,"317":0.3214088156636066,"318":0.4270329570776263,"319":0.5605815175050985,"320":0.1416845775975507,"321":0.18209181201233945,"322":0.07221359798710326,"323":0.040697106976349234,"324":0.27281716057696004,"325":0.468093920072426,"326":0.502245634008687,"327":0.0311364585829125,"328":0.11376764016581616,"329":-0.10038700841724908,"330":-0.01557358304874799,"331":0.292707808974513,"332":-0.2690901194917666,"333":0.23170969781204453,"334":0.02801543180325838,"335":-0.016072990241929697,"336":0.0399860673397253,"337":0.03856557326627445,"338":0.3273100155694343,"339":-0.32645073194913293,"340":0.3378609957184549,"341":0.025289512603581043,"342":-0.10209896527302449,"343":-0.011849401522712286,"344":-0.09151289946384825,"345":0.20422092845232329,"346":-0.5687030225843802,"347":0.38928776641006047,"348":0.023479885762936182,"349":-0.007875609369919455,"350":-0.08286321159773363,"351":-0.06502862818410239,"352":0.05346898206904124,"353":0.20705546269951744,"354":0.27243722027515815,"355":-0.02091820348540965,"356":0.028762568523519737,"357":-0.05067210984387193,"358":-0.06581304959961391,"359":-0.12560037252557993,"360":0.21198301757338564,"361":0.046080940038005204,"362":-0.08885797051747002,"363":-0.12708246772374016,"364":0.013256417102437985,"365":-0.047150307599069456,"366":0.0593064510238767,"367":0.2669705699070762,"368":0.04810517328808006,"369":-0.1475467822706296,"370":-0.07962893180925798,"371":0.009499493449143147,"372":-0.10874441042007651,"373":-0.08054537347493192,"374":0.19876720349129953,"375":-0.10496915733326397,"376":-0.12109272671988869,"377":-0.08085078671469265,"378":-0.02877788015823089,"379":-0.04692532469972884,"380":-0.14842124108058097,"381":-0.6006068876857497,"382":-0.22279047118533743,"383":-0.17966654282951242,"384":-0.04595648958031142,"385":-0.103636142096161,"386":-0.13844586292141914,"387":-0.17166025661023307,"388":-0.6214177997476751,"389":-0.3011971922331311,"390":-0.17088832174359442,"391":-0.08025301900480573,"392":-0.05535947133986637,"393":-0.07708497264709038,"394":-0.22259849857877498,"395":-0.612035852968404,"396":-0.2657954758882387,"397":-0.2232129775069829,"398":-0.0698153204420325,"399":0.05423279517864898,"400":0.023027524456280847,"401":-0.22915825044632737,"402":-0.40125327810873773,"403":-0.37850690591368813,"404":-0.09643264949490749,"405":0.012483061042209007,"406":0.015736032847944028,"407":-0.053652118729463245,"408":-0.2160276501065707,"409":-0.16673429562258668,"410":-0.2285056862564768,"411":-0.07306614218309739,"412":-0.018908955550960418,"413":0.04055721220548704,"414":-0.004264951332725248,"415":-0.23696198549631337,"416":-0.15115947811059874,"417":-0.21772550682251873,"418":-0.23117409741853454,"419":0.049565460837931424}},{"sx":1,"sy":1,"depth":420,"w":{"0":-0.08378382768395622,"1":-0.009970938598930645,"2":-0.02873594060519771,"3":-0.01040660159090933,"4":-0.04906728690628373,"5":-0.04246489105933517,"6":0.008329127205355,"7":0.02118929625507879,"8":-0.03718027848721879,"9":-0.07393950961286308,"10":0.036612779366826886,"11":-0.002030308342901569,"12":0.00874025428098987,"13":0.05594558873381999,"14":-0.09493126345162457,"15":-0.034099366224361174,"16":0.042812777707378284,"17":0.030244796055853954,"18":-0.07899345121698495,"19":-0.023702615242460243,"20":0.01376117039696538,"21":-0.0428005941036575,"22":0.0007567787686236791,"23":0.01328318716925559,"24":-0.011367097697022401,"25":0.08090431220316142,"26":0.04841632742732718,"27":-0.023952676196913453,"28":-0.05853397890209604,"29":-0.08663664206423173,"30":-0.09468240974387285,"31":0.024489839418612408,"32":-0.04226610830445865,"33":0.02052482343533576,"34":0.02937103591445961,"35":0.033532580825710985,"36":-0.0181683858856945,"37":-0.09789140186987293,"38":0.009464118560199615,"39":0.03725467821395975,"40":-0.024092531412574045,"41":0.06398999881819696,"42":-0.06794871385107548,"43":-0.058231317850199985,"44":-0.03272656106420071,"45":-0.034995415948421454,"46":-0.00018762976566327264,"47":-0.03120713634656958,"48":-0.028279252187352517,"49":-0.05334246255628181,"50":-0.04427039163383313,"51":-0.037218975372176194,"52":0.00644179357148607,"53":-0.04277050316688598,"54":0.03997048894154508,"55":-0.027797862666995837,"56":-0.0515743067344445,"57":-0.08337894090324151,"58":-0.07822308446719888,"59":-0.06118688684401032,"60":0.034625466306671814,"61":-0.022647705504400647,"62":-0.00177915064320276,"63":-0.07615748795754072,"64":-0.03814486709908362,"65":-0.08186912950477422,"66":-0.03648046315923238,"67":0.023568534678106295,"68":-0.07789308503104558,"69":0.0657946491384759,"70":-0.022984551111898097,"71":-0.15357793117087573,"72":-0.0061717706369915845,"73":-0.07668896641944767,"74":-0.05886266337474266,"75":0.023335764271775413,"76":-0.0011025487665684702,"77":0.023147533319116845,"78":-0.01446358240458987,"79":-0.04371990152749725,"80":-0.05261314873759698,"81":0.032495802809524965,"82":-0.003945165246438652,"83":-0.03910590172140246,"84":-0.014523028565131175,"85":-0.07540643204658531,"86":-0.07122360846608818,"87":-0.08132340092529709,"88":0.03516410020518613,"89":0.07004408397762284,"90":0.08464923982649851,"91":0.03443797870223436,"92":-0.041632943208861975,"93":-0.06565182901450405,"94":0.008499350150080087,"95":-0.011311448983137788,"96":0.02838924512978487,"97":-0.026198618921921837,"98":-0.050520692671207845,"99":-0.10511364281470993,"100":-0.05044729938578159,"101":-0.022239165045622837,"102":0.01445489387780605,"103":-0.046572479445747515,"104":-0.013416838577766686,"105":-0.10006445381050984,"106":0.016976880432351366,"107":-0.11453607424475429,"108":-0.023286548909945606,"109":-0.04870558286912669,"110":0.052300663467861636,"111":-0.08568017637384209,"112":-0.0014695421861435623,"113":-0.07920469478615534,"114":-0.05641820856073366,"115":-0.013037044639895778,"116":-0.06133148985994257,"117":-0.035100362591456546,"118":0.005715928977098052,"119":0.059590617948025386,"120":-0.058937437303915916,"121":-0.06199816804527247,"122":-0.055263184216941534,"123":-0.009539438652208413,"124":-0.009093769457543583,"125":-0.04389921218925669,"126":0.06267625643985915,"127":-0.05355173969221543,"128":-0.0013286105704599564,"129":0.006098557152777754,"130":-0.05806411704057965,"131":-0.04714016512720641,"132":0.003999889617470216,"133":-0.033159130862950824,"134":-0.018290834106673308,"135":-0.09015065991716474,"136":-0.05025317418347394,"137":-0.03696535539802906,"138":-0.026663943521446836,"139":0.02780633668257137,"140":0.017794225988343286,"141":-0.02797498887143759,"142":-0.038936997854999385,"143":-0.07069408519843062,"144":-0.07322405170242094,"145":-0.04422420496187471,"146":-0.03214429107824859,"147":-0.04162146779697896,"148":-0.07873859841598391,"149":-0.15511538614472486,"150":-0.12787030929833704,"151":0.004907351964564361,"152":0.002302429070301282,"153":-0.002045657359553301,"154":-0.09415913791939105,"155":-0.07206135486653309,"156":-0.11911359489429232,"157":-0.025956345080874847,"158":-0.03265252250515874,"159":-0.006663462168501155,"160":0.02524990515831644,"161":0.014052659103966646,"162":-0.04542196582161648,"163":-0.09856798047393765,"164":-0.06601855554834993,"165":0.013986091791499606,"166":0.03376274660659046,"167":0.05641778603885655,"168":-0.03398142959006687,"169":0.012803442160005986,"170":-0.12530195770902022,"171":0.007230430361357091,"172":0.02647685191416019,"173":-0.03686554494894344,"174":-0.04132643454313431,"175":-0.08628588389808367,"176":-0.019269653857182798,"177":-0.00937273261164207,"178":-0.05649916866408845,"179":0.02126640358220165,"180":-0.053575851476971116,"181":0.018624872037216928,"182":-0.07755567603764875,"183":-0.01576543140844513,"184":-0.001099234226169429,"185":-0.0637898654170059,"186":-0.10699482608058467,"187":0.0405416724686242,"188":0.03625842856118884,"189":0.024082839030467432,"190":-0.08217061051793843,"191":-0.06404398306892886,"192":-0.09722486629578438,"193":-0.11148871280209738,"194":-0.01824434260954067,"195":0.01614833052815078,"196":-0.04787254292076915,"197":-0.06014306400333395,"198":0.00345868349510955,"199":-0.08780196655982286,"200":-0.03233855893541095,"201":0.0056752100777472695,"202":-0.06491889960662654,"203":-0.04035469756399937,"204":-0.03674159221986041,"205":-0.04341778822842933,"206":-0.05424718978404848,"207":-0.060867326835637635,"208":0.015605670604357033,"209":-0.03113667541213098,"210":-0.06928121392239805,"211":-0.07585992306194525,"212":-0.06145777112477261,"213":-0.044313599283623745,"214":0.057954236570783725,"215":0.020185197113785438,"216":-0.027999224471517228,"217":0.0664870229602781,"218":-0.0309784990327394,"219":0.04431159240930911,"220":-0.06428913368766238,"221":0.0008825869834279547,"222":-0.08827722560428403,"223":-0.017646909677374218,"224":-0.016887215922121362,"225":-0.019503490107906803,"226":-0.12037528347160271,"227":-0.05977557663981412,"228":0.0031004120374144893,"229":-0.015068790270859271,"230":0.007509768832343492,"231":-0.03349753093031017,"232":0.041576136445685544,"233":-0.02222576591115102,"234":-0.12593113719185683,"235":-0.053210568946175464,"236":-0.0017970336644194652,"237":0.008396234648906752,"238":-0.03300025915244841,"239":-0.007832380717353071,"240":-0.015502117951293073,"241":-0.004700604318372657,"242":-0.021977961839069214,"243":-0.027453447426657313,"244":-0.03358861447634141,"245":0.011584623652257313,"246":-0.043940219532894884,"247":0.0547088480908152,"248":-0.007934429374195829,"249":-0.12176057507355582,"250":0.032371895982470006,"251":0.004127397126378443,"252":-0.0944215583515963,"253":0.049225784440567584,"254":-0.04000413469445293,"255":0.05007513249429051,"256":-0.02476494538897395,"257":-0.11012903662333764,"258":-0.04427411716627928,"259":0.014211591286809851,"260":0.01530109444207069,"261":-0.07393910495259952,"262":0.08214466249884286,"263":-0.04334504220201868,"264":0.021376357989130956,"265":0.0011423950701936823,"266":-0.005445379955209334,"267":-0.033360034369535434,"268":0.02359783861238843,"269":-0.0025682499143508805,"270":-0.048704284300918846,"271":-0.027537110685695025,"272":-0.01050096122407216,"273":-0.004449137334499178,"274":0.052148687817097285,"275":-0.08500887333894695,"276":0.024655660422483988,"277":0.01952561487331783,"278":0.015264261972211573,"279":0.006949175523328831,"280":-0.02933108310110023,"281":-0.021600312129137343,"282":0.015967941018853134,"283":-0.019318555377641967,"284":-0.0099247370784542,"285":-0.07567602786052482,"286":0.019217794959407664,"287":-0.02975900638731328,"288":-0.03221337690626481,"289":0.03743482180663572,"290":0.09310416131616378,"291":0.05018185505704894,"292":0.011482008127194318,"293":-0.09151436688759329,"294":0.01648402054699332,"295":0.009747341195072902,"296":0.06299514725191192,"297":0.08475093060915675,"298":-0.029187655452364188,"299":-0.05131475513965678,"300":-0.05879014401583691,"301":-0.010041278584411253,"302":-0.07118421454352898,"303":0.06460987683612447,"304":0.12476921151065772,"305":-0.13370790668007726,"306":-0.1216783860996259,"307":0.01854880173718938,"308":-0.05756032912945668,"309":0.04562668995856476,"310":-0.0205999577358885,"311":0.1428627451805137,"312":-0.09530965795435285,"313":-0.014447429894676726,"314":0.013059106888740813,"315":-0.0112305052718179,"316":-0.013579170255340547,"317":-0.012728855621879505,"318":0.15250217148880874,"319":-0.13283221683637259,"320":0.025760815220830586,"321":-0.046916823703699755,"322":0.0037026394291105346,"323":0.01986730131448283,"324":0.10144689938566086,"325":0.11427099597699618,"326":-0.11278283375456671,"327":-0.11660741548640445,"328":0.007389591937959666,"329":0.03135357591673221,"330":0.00607952366468518,"331":0.10386202409743867,"332":-0.010971650123592672,"333":0.0077460521515825935,"334":0.00022608164551824822,"335":0.0046107324870880905,"336":-0.09418633099023989,"337":0.010581234403055924,"338":0.032199413751630664,"339":-0.05671446377543725,"340":-0.04929631197370278,"341":0.026891832247956424,"342":0.07843756631819972,"343":-0.03104769127710425,"344":-0.04692901451775189,"345":0.1377715038027399,"346":-0.21592489441252577,"347":-0.021138045524011145,"348":-0.02941909567411562,"349":0.014208532726253201,"350":0.025336277547890473,"351":-0.04144401695205009,"352":0.049359559883251136,"353":0.01379120222530984,"354":-0.12060869016185186,"355":0.009031744674509469,"356":0.005861411725810916,"357":-0.05933786632351659,"358":-0.038536986167672614,"359":0.051455149456689275,"360":0.06773911399485821,"361":-0.007428134996985563,"362":-0.039032294791700624,"363":0.019415046866748494,"364":0.011912943723832845,"365":0.009933753622984771,"366":-0.0013674341798765933,"367":0.052622823019427584,"368":-0.0875748598769707,"369":0.013618917778119053,"370":-0.009945010157120147,"371":-0.07862510921029066,"372":0.008576785822944273,"373":0.1027502202590577,"374":0.08083568358727594,"375":0.02275747461105315,"376":-0.12991418293657467,"377":-0.05745413138605208,"378":-0.09243098987509904,"379":-0.02186694189852769,"380":0.03372347392401876,"381":-0.22526137232348745,"382":-0.09477690857121153,"383":-0.0047652949192573315,"384":0.007170889036824077,"385":-0.05019561807708104,"386":-0.03705612351327779,"387":0.017044728571187582,"388":-0.07913993930517764,"389":-0.04201225411334159,"390":-0.04467506792821267,"391":-0.0022711884623573654,"392":-0.08174804439343389,"393":-0.0342879681551706,"394":0.06404473747543116,"395":0.04727880391080877,"396":-0.053878413579847455,"397":-0.008374184977727697,"398":0.0026712479383647686,"399":0.020649350260101167,"400":-0.00348844566600283,"401":-0.003320935493353416,"402":0.21981493009154038,"403":0.009005633953076478,"404":0.015860505810527913,"405":0.0517182233504308,"406":-0.057808772242912546,"407":-0.07972566666513514,"408":-0.08946231647116186,"409":0.20948023651228345,"410":-0.03998299950901123,"411":-0.053371849234137674,"412":-0.02654119712993004,"413":-0.0033780554877016478,"414":-0.06057997500562033,"415":0.021209251816144487,"416":0.1434261683478941,"417":-0.08073648470115723,"418":-0.022050420916258678,"419":-0.011003392366510984}},{"sx":1,"sy":1,"depth":420,"w":{"0":-0.08988762472036338,"1":0.012482330127250972,"2":-0.00525128117322539,"3":-0.05641916876040186,"4":0.0005719517065851501,"5":-0.027867523156749265,"6":-0.003828219787892727,"7":-0.02646390091574986,"8":-0.03664495705763656,"9":0.0052823061313240815,"10":-0.002011334340426501,"11":0.05311085809670759,"12":-0.027402285506815012,"13":0.07240955297870116,"14":-0.07988036948755003,"15":0.0357379741821628,"16":-0.007648102096629187,"17":-0.027025077824457396,"18":-0.05078750678035931,"19":-0.0584287765282211,"20":0.020784730246151174,"21":0.006945030858390303,"22":-0.007026433455016786,"23":-0.1386570798312666,"24":-0.00865437357023667,"25":-0.03289867791190645,"26":-0.015430958758964325,"27":0.07671088990682354,"28":-0.064081819267743,"29":0.05044725843313543,"30":-0.10669224446506753,"31":-0.053892346969426734,"32":-0.08051944857076403,"33":0.01107114101194491,"34":0.004957661824286214,"35":-0.02493746127873586,"36":-0.022205966754018966,"37":-0.04628591029005663,"38":-0.04621260761857558,"39":-0.0004469992672192649,"40":0.05457101539908285,"41":0.06863893771123993,"42":-0.04225040871380367,"43":-0.01059993577732418,"44":0.03103576109353455,"45":-0.06761405615566451,"46":-0.06530235301526945,"47":0.06595421714080864,"48":0.023338001666766223,"49":0.012019346239582786,"50":-0.0005161343117012314,"51":-0.08447539561818547,"52":-0.04857586754491703,"53":-0.05942027669034791,"54":0.03158163205033142,"55":0.1029053281085842,"56":-0.0361989424773363,"57":-0.02813492252630339,"58":-0.029991086270461587,"59":-0.12994421922569396,"60":-0.05734777194253418,"61":-0.037209263553592976,"62":0.06433650582674298,"63":-0.004654834256289287,"64":-0.06194080568421853,"65":-0.07434893176760549,"66":-0.09801278286907117,"67":-0.08183445268698945,"68":-0.048575585671540494,"69":-0.07294764267179867,"70":-0.04350068743438059,"71":-0.055688677346752105,"72":-0.0512633228440972,"73":-0.03361842083736767,"74":0.026782681585431713,"75":0.05517225273036538,"76":-0.05348269925123586,"77":-0.03842056540329785,"78":-0.05664201281194157,"79":0.011233254348355128,"80":-0.027761808959084897,"81":-0.03586465768193835,"82":0.006431584810178503,"83":0.021065736766993002,"84":-0.07262865356328792,"85":-0.03344499225774511,"86":-0.00712098428578909,"87":-0.05564386453684645,"88":0.03514295182050539,"89":0.04090390460225274,"90":0.13846841345608701,"91":-0.08795603256727728,"92":-0.030434295531845075,"93":-0.11048675615453023,"94":-0.0556294904027704,"95":-0.06130080416816782,"96":0.031155860923248357,"97":-0.03310196372929759,"98":-0.0783789345197244,"99":-0.05906943419708405,"100":-0.047755513467855205,"101":-0.06275156949709496,"102":-0.14651924258028373,"103":0.06357375034196304,"104":0.05168878270987555,"105":-0.10252865748577525,"106":-0.014889317263318196,"107":-0.008256954043856096,"108":-0.06586650596098068,"109":0.04199590686697824,"110":0.006717263466897228,"111":0.02415701253420243,"112":-0.04906896385605881,"113":0.0327763659617157,"114":-0.007225839668902081,"115":-0.06811872560105352,"116":-0.03986423153036978,"117":-0.010986447242069524,"118":-0.05843369452089392,"119":-0.04924090659071093,"120":-0.019566548307906224,"121":-0.01601616596465032,"122":-0.12696609284637073,"123":0.05892122183403957,"124":0.018683256613896887,"125":-0.04329881941166538,"126":-0.11124034474621361,"127":0.0523772910306723,"128":-0.13465149278782487,"129":0.025025500118352383,"130":-0.054369834338531486,"131":-0.01497290046048184,"132":0.04908555076847532,"133":-0.012212829993816874,"134":-0.07829043898352166,"135":-0.06313649028775427,"136":-0.021057304549960323,"137":0.003445698561033913,"138":-0.04678537234303549,"139":0.026179897586682314,"140":-0.0409145484306101,"141":0.002455075381608433,"142":-0.04766826581950589,"143":0.0018477005660160147,"144":0.03049657411076354,"145":0.03952571891429855,"146":0.07332903668402724,"147":0.04441544591376058,"148":-0.03641556598261442,"149":-0.06957457330661314,"150":-0.07437070143303154,"151":0.031579865344505104,"152":0.030297951650863096,"153":-0.03737023494940333,"154":-0.1257849157416619,"155":0.007144347590287631,"156":-0.012117432454247245,"157":-0.022686362483505865,"158":-0.06910967352890228,"159":0.04710840683089649,"160":-0.04536131068798053,"161":-0.06123772662973945,"162":0.007103618987194996,"163":-0.07908972447529572,"164":-0.010368411944399027,"165":-0.02946386416649519,"166":-0.015438732665162824,"167":-0.026946064422990697,"168":-0.10064506994456685,"169":0.01977061210967147,"170":0.0054170570927607,"171":-0.1275002158111594,"172":0.01963976789428307,"173":-0.022998491504428703,"174":0.010311352036994032,"175":0.049582914032805375,"176":-0.05076502053652344,"177":-0.06438336824463274,"178":0.010951311764503287,"179":-0.04756255003382105,"180":-0.057936845547952774,"181":0.0037363682583978794,"182":-0.02089367906013641,"183":-0.09050382813566292,"184":0.02014263773339979,"185":-0.07997101525254201,"186":-0.009744525008187663,"187":-0.0033860354908905516,"188":0.05098790186728858,"189":-0.1249620708815237,"190":-0.04931729898586324,"191":-0.04470130452336668,"192":-0.20026481285279973,"193":-0.016425637971332504,"194":0.021197377346786925,"195":0.02224454773052824,"196":0.015340423337702495,"197":-0.07053986350726081,"198":-0.057219778499130264,"199":0.027181799553513956,"200":0.02448186903963372,"201":0.0022136482741337148,"202":-0.09159182836609213,"203":-0.007914382542172697,"204":-0.07172276877555044,"205":-0.06247784842710031,"206":-0.028345966321732606,"207":-0.05075602418907344,"208":-0.043036215764603196,"209":0.023757003056708793,"210":-0.04153008344827403,"211":-0.14913910299291844,"212":-0.030426162800985933,"213":-0.029854177171041624,"214":-0.06119092343715092,"215":0.021400534933468583,"216":-0.005768233390249551,"217":-0.005185982795791294,"218":-0.004233362185005581,"219":-0.074886346445438,"220":-0.014019774139501616,"221":-0.11823749223022154,"222":-0.07807322579254038,"223":-0.06193213141653967,"224":-0.033059589085515435,"225":-0.0536171500483853,"226":-0.025432495322001238,"227":-0.03871438723159666,"228":-0.08574291083421125,"229":0.12849385663020294,"230":0.06068992132167323,"231":-0.0920394587292868,"232":-0.04062222133083227,"233":-0.06384315548533943,"234":-0.16390241823491547,"235":-0.03985850167225495,"236":0.00723484088891213,"237":0.03317426021831351,"238":-0.07695039744799721,"239":0.05326950584933042,"240":-0.061632906723406385,"241":-0.12046173348306946,"242":-0.02505269144674519,"243":-0.06987452320850922,"244":0.05765763567736802,"245":0.008047085762704643,"246":-0.002586148183250161,"247":0.023219980902041554,"248":0.014766264820051079,"249":-0.089387456429192,"250":-0.09847046396668264,"251":0.0076438336831031245,"252":-0.017059058291611005,"253":-0.034284403470007566,"254":0.017919467096995025,"255":-0.04762583392983847,"256":-0.028386201550253266,"257":0.10370530788647103,"258":-0.04471333249516088,"259":-0.012222009061416043,"260":0.027478317336408084,"261":-0.008895443296374202,"262":0.02694728804489899,"263":-0.028437169636039424,"264":0.035951844761758944,"265":0.05726741492937581,"266":-0.032155394213987706,"267":-0.030097999164737346,"268":-0.0331022703297887,"269":-0.01757868169905612,"270":0.002201045241954003,"271":0.0033109678339159165,"272":0.013514657420016148,"273":-0.07861218623706044,"274":-0.08910990902015958,"275":-0.06593749665119285,"276":0.002367563481342609,"277":-0.15375279693127147,"278":0.045449668027476436,"279":-0.03081145856558597,"280":-0.06335036247540488,"281":0.010478644579747131,"282":0.010535765053648942,"283":-0.15587071598980176,"284":-0.06403060218559682,"285":0.05985105530924808,"286":0.002989562700967431,"287":-0.08208217536735957,"288":-0.0923863217445812,"289":0.012829453538888834,"290":-0.10362037375863467,"291":0.042945976459724054,"292":0.020728129211069948,"293":0.07516765649991497,"294":-0.13899862240788913,"295":-0.10837055134146596,"296":0.10815234531233388,"297":-0.062021669013140976,"298":-0.011337108034696192,"299":0.009732326789484614,"300":-0.002575380814891706,"301":-0.05784755120951075,"302":0.043603850485913434,"303":0.03430465527597639,"304":-0.04543616101284756,"305":-0.09747057581236739,"306":-0.04851421544610989,"307":0.012263234515130764,"308":-0.069562569482214,"309":-0.08215338413127722,"310":-0.030205889969138425,"311":-0.09568231108948522,"312":-0.09856197064844875,"313":-0.029748949300107564,"314":-0.10275035740858668,"315":-0.016880672966623773,"316":0.004968612150368251,"317":-0.03224131042417075,"318":-0.06796653595298181,"319":0.05195886679443888,"320":0.046858977881151745,"321":-0.027154454800344032,"322":-0.02231142478431224,"323":-0.02817302253721119,"324":-0.07859614191192209,"325":-0.07458598100218038,"326":-0.08062265045711192,"327":0.0363195638365924,"328":-0.07039890235326124,"329":0.02438309655659028,"330":0.05156161289611864,"331":-0.009368777506554217,"332":-0.027288489248911963,"333":-0.018982033712788705,"334":0.037774816798969955,"335":-0.03116601990374935,"336":-0.020809374751270076,"337":0.019419958843051564,"338":0.03373569824185531,"339":-0.09746947825344149,"340":-0.1287585225830234,"341":0.049338145233084094,"342":-0.02878364710218508,"343":-0.04271425220013,"344":-0.034737078270273246,"345":0.09620924560416498,"346":-0.1259038733112983,"347":-0.02913621691596321,"348":-0.022002351864614723,"349":-0.060299500473476736,"350":-0.07513175960276267,"351":-0.012911124652260188,"352":0.0380829203033961,"353":0.03534751040542545,"354":-0.05003306848669509,"355":0.05609622559909177,"356":0.03441312562456227,"357":-0.023456384963030267,"358":-0.10517458557690344,"359":0.06659150737659525,"360":0.03001384906004905,"361":-0.09554788791757929,"362":-0.08373808212077385,"363":-0.015563957946463963,"364":0.003719798853290522,"365":0.004486790091641039,"366":0.05300765154339361,"367":0.0010469427472046028,"368":-0.024449003775081395,"369":0.048503190499731876,"370":0.02106743319994346,"371":-0.004326358942218149,"372":0.06986214114041364,"373":0.05827125711870793,"374":-0.08847001480462117,"375":0.01984202351030777,"376":-0.013823648379002585,"377":-0.0076886583158246495,"378":-0.028831953691447657,"379":-0.058027397963852145,"380":0.04066035159785667,"381":-0.009038438005599498,"382":0.006408671677781132,"383":-0.012864812828656062,"384":-0.0411275975126801,"385":-0.041421800619546076,"386":-0.05563482832444009,"387":-0.12960624922976918,"388":0.055987230940077175,"389":-0.02234869461771418,"390":-0.06059182848265041,"391":0.04485598639981384,"392":-0.1203594717986807,"393":-0.016026319814227922,"394":0.02766485242781627,"395":-0.017759551660450634,"396":-0.01848203754238476,"397":-0.06919928711446315,"398":0.010666335558566819,"399":-0.017610561543589674,"400":0.027507458533482205,"401":0.012020936623622927,"402":-0.17675857279662668,"403":-0.03154972226369184,"404":0.00918009027139961,"405":0.021507271856687625,"406":-0.0627969155445427,"407":-0.0009478195687874058,"408":0.010253357580472293,"409":-0.12191046331233032,"410":-0.014925956771012147,"411":0.002832197357651036,"412":-0.013083034414295383,"413":-0.015851758511481535,"414":-0.013782276596011273,"415":-0.0028195208591358825,"416":-0.07206239250300357,"417":0.01921862671734351,"418":0.03235435389024255,"419":-0.012550010829196327}},{"sx":1,"sy":1,"depth":420,"w":{"0":-0.0035971904147437794,"1":0.05035534451680656,"2":0.04113706501907648,"3":0.06493430711121054,"4":-0.0289300151212098,"5":-0.127670752773961,"6":-0.04042141990231034,"7":0.026846121945084647,"8":-0.0658949021737366,"9":0.019298538556673014,"10":-0.06044769299120472,"11":0.10586975446705507,"12":-0.04650722237160415,"13":0.06327958095300341,"14":-0.14644075264245704,"15":-0.0700084515648619,"16":0.03854242818768494,"17":0.028836671119416575,"18":0.030157536717498896,"19":0.025020792059517592,"20":-0.02624120954138257,"21":0.006453718563208666,"22":-0.020261874355411186,"23":-0.08457558040440621,"24":0.04476788470062345,"25":-0.04233095539647737,"26":0.03377845638929665,"27":-0.07866349307290509,"28":0.05196271651077621,"29":0.017387848991414153,"30":-0.054477746230314324,"31":0.014933385763682236,"32":-0.005253412645296147,"33":0.05206811584966698,"34":0.08040252301795618,"35":-0.024184328383912202,"36":0.08283872117114421,"37":-0.030137380967036415,"38":0.008998440328140464,"39":-0.01613701497294858,"40":-0.052974044748189314,"41":0.05270067234760557,"42":-0.0549035353592286,"43":0.10632177370645254,"44":0.02820476102272923,"45":0.0889111691713763,"46":-0.05197719281302705,"47":0.01304051774623421,"48":0.14143498836016194,"49":-0.09477662577255502,"50":0.1322941818771443,"51":0.11500629133595579,"52":-0.12489595705838846,"53":-0.02022083520921485,"54":0.03208044167097683,"55":0.12876265547483315,"56":-0.031542687464347685,"57":-0.007229625796160094,"58":-0.04546608440621882,"59":-0.08210067562803469,"60":0.013402558160585389,"61":-0.03838035224310583,"62":-0.016356272722932934,"63":0.07062083787459145,"64":-0.10213104047449377,"65":0.044937679729803934,"66":-0.03977466382305481,"67":0.06225520200161822,"68":0.016789180363117055,"69":0.05524555254444021,"70":0.04498982556996937,"71":0.04728586052252437,"72":0.02722710171011711,"73":0.05154152219172937,"74":0.07486112886086,"75":0.03954748958848261,"76":0.0007400191706545854,"77":-0.04710576455552487,"78":-0.01180491016798781,"79":-0.009644468503850739,"80":0.05517721611938071,"81":0.047794908254918694,"82":-0.03667830113457552,"83":0.0009270086043542494,"84":0.1207774006696119,"85":-0.050788556857560806,"86":0.01955373460713163,"87":0.09646295085797713,"88":0.002164224220136743,"89":-0.01568408393562538,"90":0.04157387841749067,"91":-0.0746590958104475,"92":-0.03840573418793079,"93":0.1064080654949582,"94":0.08734998634589781,"95":0.08786264920635573,"96":-0.10023861822744896,"97":0.028024325504419932,"98":0.0541227929620218,"99":-0.15087729425330498,"100":0.03551987771737025,"101":0.12054230089395934,"102":0.0755531466395612,"103":-0.10714058877608862,"104":-0.0474023925635806,"105":-0.0398645826049874,"106":-0.085277305645204,"107":0.10075301483656779,"108":0.1317531862983616,"109":0.03381403972993425,"110":0.013324764480416938,"111":-0.0007786343838720971,"112":-0.10979910712048539,"113":0.0367191592601912,"114":0.032193871725206956,"115":-0.04222369020621887,"116":0.09790001288735371,"117":0.00011961432049746633,"118":0.11370247853851534,"119":-0.011120499784264767,"120":-0.05091021447400091,"121":0.0799712814737572,"122":0.14422351005247974,"123":0.1175064462533095,"124":0.08887503625188463,"125":0.023832771524585433,"126":-0.009572094393867745,"127":0.06579585761159273,"128":0.1340115091523562,"129":0.0754674859095196,"130":0.14319244691780425,"131":0.0670977311902904,"132":-0.04397030289487011,"133":0.03538906816549545,"134":-0.06911032540561435,"135":0.10343974313067159,"136":0.07961920351786449,"137":0.06995764191763378,"138":0.12299317934441109,"139":0.008252767343239523,"140":0.008173711506859709,"141":0.050254457764688926,"142":0.009553214167452771,"143":0.14723067055684597,"144":0.04379491887075395,"145":0.08975210004216674,"146":0.06710321170159646,"147":0.052235798251557004,"148":0.02410889707362211,"149":0.0418860093149865,"150":-0.020040588025808624,"151":0.06408393271143188,"152":0.17093578921442737,"153":0.020727098982333412,"154":-0.03368160898505215,"155":0.002032002827028368,"156":0.13812550033787369,"157":0.11916048804123469,"158":0.09258364630566956,"159":0.024342556791674807,"160":-0.008776868086417049,"161":0.022628084640837293,"162":-0.07495101217336816,"163":0.02456833457993031,"164":0.17656968917769467,"165":0.0879159303230047,"166":0.015761849545600944,"167":-0.10597561540262737,"168":-0.029992971454091202,"169":0.01830797969134598,"170":0.11696706725875075,"171":0.013881407397628893,"172":0.14437736153582767,"173":0.10116698939173484,"174":0.01175280675144188,"175":-0.02461848670726671,"176":0.054674984494347524,"177":0.12396284620584926,"178":0.04549506509603479,"179":0.1628123209658499,"180":0.06249364589606523,"181":-0.022543608951092465,"182":0.08149832050286115,"183":0.02076641698130415,"184":0.07922524286385384,"185":0.12790222049968228,"186":0.04243916748258249,"187":0.1704125686372035,"188":0.14888958502316788,"189":-0.018989868213823587,"190":-0.03091694580065229,"191":0.062027694525666144,"192":0.10058105407641782,"193":-0.0017861991071689521,"194":0.17273554159669657,"195":0.016409263525981866,"196":0.000803637104120198,"197":0.037257248824710903,"198":0.0618485414119985,"199":0.07632177986490336,"200":-0.02511158387075489,"201":0.15230212675049992,"202":0.05094786659842714,"203":0.009921362314981612,"204":0.0953588010177076,"205":-0.006114058226986008,"206":0.0937997391112496,"207":0.09315797365142328,"208":0.10387836377653571,"209":0.08406629560544289,"210":0.08130726832232076,"211":0.06440350718911421,"212":0.09184222371079653,"213":-0.035872527461560666,"214":0.08196940333612221,"215":0.13728644449767288,"216":-0.01130211404206726,"217":0.01220413243529125,"218":0.048780062327072465,"219":0.18411641822819846,"220":-0.0784167390038488,"221":0.19961748772611604,"222":0.07615319418616627,"223":0.015135494144143792,"224":-0.09873541634376992,"225":0.07166169685645535,"226":0.06463690547779619,"227":-0.09370366012630604,"228":0.1786652156764585,"229":0.02784997780529736,"230":-0.05500418063037374,"231":-0.06429070825438628,"232":0.0013509614335722657,"233":0.21774806288612208,"234":-0.12969594555214495,"235":0.1943110904384195,"236":0.002705687465070368,"237":0.0025520803237023106,"238":-0.1030770165941306,"239":0.04697087739643512,"240":0.1784848904643646,"241":-0.040600999744074544,"242":0.10378156988493524,"243":0.05971066210237279,"244":0.016485892964319335,"245":0.024059541025924558,"246":0.015663628017878017,"247":0.10512236023989056,"248":-0.16887410186259028,"249":0.11100037545885294,"250":0.08079221471714479,"251":0.08565252978508263,"252":0.103658027592155,"253":0.11068275670657535,"254":0.13837757139646753,"255":-0.22322295567845452,"256":0.09641253200127381,"257":0.0661447250486751,"258":0.10587627017676869,"259":0.11114572214086114,"260":0.05589915813810514,"261":0.25406340491387164,"262":-0.1421829175166392,"263":-0.03492542879660392,"264":0.1500444973671313,"265":-0.05463818095175759,"266":0.017205111807937608,"267":0.05664270449735253,"268":0.11300121016165941,"269":-0.15472573847445334,"270":-0.10460309221595868,"271":0.03794880140327228,"272":0.021608916779617224,"273":-0.08265372979170614,"274":0.07983353290635252,"275":-0.0523476659646911,"276":-0.011019034626706552,"277":-0.016502254750484592,"278":0.08185455016900951,"279":0.08105312838348454,"280":-0.0795087809081137,"281":0.06052982672069587,"282":-0.10197402442720377,"283":0.17660464891210584,"284":-0.1049700455753631,"285":0.21089578881050672,"286":0.09599698083092632,"287":-0.014421534545977954,"288":0.03618961612028502,"289":-0.20350109201858377,"290":0.15391931845584245,"291":-0.31042983710875677,"292":0.034360465371475746,"293":0.07713351735290148,"294":-0.05314898707340226,"295":0.07294803863290594,"296":-0.018718105944184864,"297":0.007104379051721546,"298":-0.19731866096801864,"299":-0.002633020739876431,"300":0.028869120903852658,"301":-0.04817242580837859,"302":-0.024939667665049108,"303":0.14824008181292528,"304":-0.21962691633226858,"305":-0.11467739626703721,"306":-0.13520087743973844,"307":0.07634785098927863,"308":-0.023203880559011226,"309":-0.1333727809356654,"310":0.25851234563469183,"311":-0.11851571776216571,"312":-0.07220385348839185,"313":-0.07066391327417565,"314":0.14184838329811492,"315":-0.040581978694631225,"316":-0.11711054662383476,"317":0.19297427568470174,"318":-0.09237297429939766,"319":-0.08282734083107864,"320":0.026198797271449616,"321":0.087027580903913,"322":-0.06726475211520652,"323":-0.11671368937908955,"324":0.24475026512459805,"325":-0.28137536632240007,"326":-0.13377171637546284,"327":-0.14376956873056854,"328":-0.05090857254351659,"329":-0.04119033834944334,